-5.370550790212002,0.22591590814031415,-4.4217146393252955,-1.9828099781100734,5.463747046441816,3.9059066098441138,2.560572915380864,6.823167973973106,-1.5414615057954966,0.7028986846410405,-0.5810123566344476,-8.816686219709073,-0.9293562372062207,2.330918106903173,-1.4362371889271275,-5.7538132431902085,-9.214956389283845,3.7903060953371313,-2.0792823950472896,1.1249660570472604,4.337016389030455,-0.8655678584984292,0.11424572858171067,8.098250316934399,3.1883762545657834,3.228532049898802,-5.918719195443279,1.9054175934418804,2.2776426788101576,-6.696993291878819,0.6509425376748761,0.15767158336507947,3.2833449323254253,2.554687544516976,-3.346109943177744,-2.736193189761232,0.4968579336981316,2.9560583801359486,2.6834135607515437,0.095704349562872,-4.268190627072798,2.5614051165440825,-1.3328442439805652,7.6727087349523835,-2.997059819704,-0.2348422523745164,-0.9168258629515611,-9.229920687511719,2.8439603721556455,-8.123174155688023,1.2936263297088124,-3.124507930511264,8.931819281335223,9.289450061994856,1.2357706031702045,9.513262916587818,1.1945215595519265,-3.0656427485324826,-2.7090243203427686,4.662600440285987,-1.7581747725894692,-1.8112974923263554,-3.9064730073009866,-5.072796367216529,9.467620393607374,-2.5154387979831156,7.192431870471832,2.3989753049872347,1.1698593047169683,-8.650513528780294,4.0477073652653095,9.523296183489746,5.147031115354702,-0.1847718387528956,-1.1332523807407526,-2.4109489236373376,6.4886983201660025,3.252374485788615,7.560538864594139,-3.2692106405438954,7.625008980329832,-6.540902927784372,2.5554960783651524,-2.7821223898799605,-8.438418586707245,0.7123490355913908,-4.735439243302931,-6.599900167803321,-3.1341316965801322,-9.094932759950094,-7.5705196914316915,1.8113207880796047,5.628311143200792,-0.6808979077709356,2.8664003834119987,3.537343204711839,2.9813730594417116,1.8465773902903782,-7.4021529006533395,-1.601151416833154,-0.9273490479779909,6.36769837245117,2.131148871555057,-2.6523395866079116,-6.217953893225685,4.9893026570414385,-2.5857770227428905,2.371321252593474,-1.8050288033815933,-9.032173548566965,3.411081458632072,-0.7093513745023929,6.749969190321174,0.681737453955944,-8.73346788709993,-7.85651885569698,-3.939134781107895,-3.1509210252291067,-6.482507590185634,1.6152412549445798,-6.060166933431549,1.1949472383525057,9.52743445896669,5.7271911494414605,3.3150993328172147,8.297579130137631,3.7949633607859665,4.084600454765416,2.530296689798567,-6.260189747066087,0.25624641069817056,2.1366423831081054,-2.6044907840710954,0.9754073651400468,9.796954781592925,4.315477802841478,-2.178057563267748,-2.571322084568659,-3.6429591097962852,7.666255042639688,9.426165973479101,-6.962403421972379,1.5096233066705373,2.6007718772604234,-0.5155163076643898,-2.9441397269757577,2.5812437362815617,-2.9113101271955912,3.316288200130896,-0.25713871850247916,-0.5500524156920523,-2.505103910898396,-0.789513881861128,9.25170929437212,-5.385109330569661,-1.2134407071746036,2.6193178807429414,-9.21197864267239,-1.230971736919222,-6.279440033408437,7.106318234238846,1.169443612533267,7.812466022999585,5.640741208269027,-2.9817035245411763,-0.8614182250721774,-9.51163138240568,1.1859154407618666,-6.465094828681293,-4.442793291083625,9.625496959401294,3.873119914531783,-1.3788088400256058,3.49011332660495,2.374620416765219,3.031013247855073,-3.0763414890954177,-0.06086490867866434,-2.4203463625962884,-3.979965508896071,0.4113891421154725,-0.44418072168549294,2.502700746300187,4.614495389136881,-5.120125745457541,9.845422780261858,-5.275316319333392,-0.5473409737689598,1.7870233628476675,2.451325888271115,-3.2284576827943177,-6.010089700378449,-6.617893346499164,3.2459337822147845,-1.1645637545087513,-2.5181981646345175,7.05678009928417,-4.424360640958861,9.151985710993342,-4.2596341940422935,-6.961863333515981,2.7523485266877508,3.287650655782399,2.243015597017871,1.1080715394671201,4.6036978700617786,-6.380331079041301,-7.231012280107498,-3.058007807135475,-2.4332293798803475,-0.6949746877673375,5.341485303206225,-2.68043781726116,-0.26859339977094,8.32323777966285,-5.3490461196506365,0.8545631497606639,0.10088033158052356,6.697597694424279,4.498882648525392,-9.572888081549563,9.801667219982024,-7.414072050138552,-6.3110554496041384,-7.7100902010417665,8.1570654944925,5.996475255461539,-7.149454438784898,5.949118382442354,-2.125179047137122,-4.032592033209925,-9.638109539473142,-9.036104497224255,-1.7098108394697213,5.402822974676793,-3.8029339881548276,0.9065459716629318,6.995584647634324,-4.148210882668375,-4.453240871147751,-9.527959305169247,-2.914392238634358,-8.842522051172887,5.477281718670751,2.00943692639993,-3.281242891105485,6.790833805261202,0.33786690504366046,0.04976618700209556,4.812845893047409,8.977798886794872,-5.588309344824961,2.3591093964747563,-0.7449063636242843,8.942973116737717,-2.206376863541628,1.9521254811117519,1.8429550393072818,-2.2629529984621746,-2.1246021950854557,4.476089173961903,-9.211205167802314,6.071913457330037,5.205262075320778,-5.194815687664401
2.5173230611018713,-5.926816903513248,6.3065563711541435,-4.833493098054289,0.7978037543065088,-9.652923524430474,7.244697127335035,9.898296314522604,-9.781842606042723,-7.309662492036676,-9.998572717508617,-7.681889893477143,2.9759964168094886,-0.4626810430612771,-3.6408963633502793,-4.654159922742831,-9.382349624140106,-9.989092549158034,-4.916664984423624,-2.8281485608269907,-6.510096990067703,9.886593288999313,0.8857655336741761,-7.154274418797787,8.355006003976197,-5.806744741862638,3.169982175244966,-7.256085061650956,-9.946903308985886,1.4715784281749862,8.47746103780448,2.9510245493467178,-3.4685770355392793,1.0011722100537437,-9.564928265209947,-9.944839396775699,-9.978445638619672,8.56888460074231,-0.20282130830850775,-3.0355801768356825,6.221478869875494,-9.560156397439103,-5.837768152673948,-4.6383737998797345,-9.380492413315178,9.398568418484476,-4.154816107737411,-9.97126622108033,8.451713812127435,-8.955454514318559,9.340331669166094,-7.696945537044624,-6.4883720038932875,-7.258442124183916,7.549712038123603,-7.696302847843328,-9.257395172402397,6.925035032252417,3.8059917567898616,-2.3056981615848544,-9.98366918488145,-4.3564373794192655,6.8811641010981806,6.991908092847476,-2.2457582098717737,8.115217995149774,9.041582244535476,-7.042981697554309,9.982468472814658,9.98877649969389,-2.4806525263735466,-4.718831820703252,-5.169534240262745,9.333637746798532,-8.836265780761028,0.6937401177990186,-8.991638576967455,-2.8818129537025685,-4.2213680163671885,-5.229922805376322,-7.032814743472031,-9.946490541084485,2.778104928371307,-5.667991822457588,3.566885765685949,-3.638962228241015,9.981352781974529,6.96685500110409,-0.7911388687812622,2.0212963565100512,-8.25522994877471,-9.994920622381077,-4.308271991634164,0.6951447415574261,-9.643836017464395,-7.304545989057701,6.025346954820394,-5.4985436672634505,-8.334839058216888,-1.8538722383281154,7.180576549124728,8.890236577845572,7.480595570227299,9.792876597092137,-3.015244350146869,5.790351796282054,-9.4112488209242,8.274252465506937,8.0251749751931,-2.0189490109271553,9.885851878616448,-5.383063035104339,-8.917616537304637,9.999999287217092,6.936753849212243,-7.18574693745834,4.507681925369062,9.460472467130947,5.1873774234420456,0.3508588530660699,-9.999716837458546,8.28727877506515,-3.2159478105320005,7.832539622780169,6.405724507882432,-6.408230351373872,-9.86822039786102,-9.496944393596715,-0.13647690789411504,1.8696289999199394,-5.561058710808009,4.346593536291656,9.80115661858786,-7.896547966225231,9.346925603774928,-4.476500398089771,7.75780705104156,-8.474394638081908,7.308289828862446,-5.718287996757679,4.199061330690882,3.574463080218381,-7.0208242550535775,-9.400554290251947,-5.942197047691734,-7.335115275669526,9.997415764496091,-4.221079554129531,9.31599505558468,9.920985358422733,7.358071609549377,-1.355101077683905,-9.697779926949805,3.3402547537589955,-8.47534851705154,9.999980564304764,6.466147956281435,1.4724887920882157,9.874365587905835,3.242013775358809,8.108321188696241,6.839474976875384,-9.999992778477257,6.322528587546277,-9.772285242685427,-8.40103947734931,3.395621469171129,-7.934406188931211,-7.798556700210678,-0.6145279768673539,9.604965153737227,-9.234827671787901,0.49712905062029505,1.3639436114042365,-9.08592846130347,0.783347157666362,-8.066578345481163,9.879987654437164,-4.23379747272619,-6.973080339659112,5.273926478220351,-2.8414712966955706,7.669425017805629,9.98344282735086,-9.372288142482297,-9.996768164773261,-3.082045195246514,6.21456407589902,-9.404864949262135,-9.993877390142961,8.599016743703721,9.954930193364378,-8.87170675396083,-5.956500283316598,9.882825306547565,0.4431330469052206,-6.213425673474454,-9.068037194112108,-2.9897229684227815,2.9859731588394522,0.9037973677748639,2.3925805220562717,4.096228674809374,8.691220258776394,-7.966791672006862,4.990128793638549,6.890450062001234,-0.11281951834494564,6.025511640997872,-3.9108157244444044,4.396465150212904,1.9831642675181609,9.71386162639235,7.561751051019352,-2.182869797487986,-9.918889340151775,8.645593322453202,6.738203874507636,-9.532263882952776,9.882657962874278,-3.2394750037702735,-1.9881590162646,-4.294693563889419,-4.278296260152787,7.472977582100727,9.450726972618773,6.53196001496502,-6.964217297416801,3.454344042411262,-0.7873972925688371,-0.8083181074256863,2.9574918440731706,9.139640166257697,-5.594047098724332,6.76481032517655,-5.953442717215135,3.727767484929709,7.261510266598033,-2.3614615153911327,7.7638788410849795,-9.363296090129818,-9.076728866096053,0.10717043452928365,-8.447245439444643,8.493375087820683,7.308245920980145,-6.325145432065875,-9.651649468716371,7.426413158039496,-9.949592290699282,-1.5318229593157895,-7.737234787948536,-9.55409934078044,5.066099497195051,3.008643302549877,-9.969413020939545,4.046212735729313,-6.005313551580966,5.100529999566726,7.369090597026403,-9.21752129000938,-0.26071839778367334,-4.832406455919738,8.5094917032966,-8.102267819264771
-9.48413186285327,9.94301225601807,-3.5358560662986127,-8.47248952214843,-5.667930037931528,5.5489488938572595,-3.581625482479037,2.612520745159453,5.610774183181604,-8.266400775944634,9.639646711902014,7.302046026646502,-4.834703398038282,-9.99752166176348,2.401341873977856,-1.3671169661251312,-9.842012276906212,5.052944034128472,9.633180887470974,-4.279049863867941,-6.332957530801199,4.668364575027151,-9.261406701447433,-5.365277751864442,9.998293839681889,1.7198273666132113,-0.05560660317089974,-4.640245954332808,9.485895591645225,9.82374126536022,4.438031450551484,4.527033248708227,7.8821471029587595,-9.960323431603001,-9.972143298820193,5.838295444709614,2.8361592676480876,5.077183303456104,-6.453930448225263,4.752524812884877,9.712993766382263,4.3456194193737385,2.5967333991767045,-9.983626416945812,9.934120508133528,3.647532684600335,9.295733182595956,-0.9684970156983432,3.867021520273193,9.720250881226951,8.454136189134857,4.111954257706374,-5.303712322195993,-9.648308321340952,9.33494568278083,-6.613073388602054,9.953991227138848,-3.422619929293762,2.531374761198631,-5.390290448089314,9.030905533549813,6.231846930632665,3.0060487496893025,-7.410814566277275,2.0253583235790247,6.7161923837688,8.505297089959136,-3.9634026491720844,8.913768666951675,6.981315412960287,5.443854040514998,1.582661060249686,0.9617721717817691,-2.5201272335713982,8.300763407969827,-0.9734835857125592,-0.2790247513191737,-9.48221849953183,8.756043976186945,9.43853803710255,-9.027213414775817,-9.774811840996446,2.1993925748272103,-4.063440478832899,-9.561601421072753,-9.971377239441376,-0.1682065223724365,3.912152321739108,-1.4793523563773903,-9.547340958432805,9.97799436217385,-2.0266489409722297,-3.762518018476097,7.9843203508437295,5.183320563322881,-9.56920247408248,8.799430616768474,-4.354607862635371,7.144901440751668,3.66826924103587,-9.659290959452282,7.97962469214085,0.18102753532112992,8.772675599192684,9.593327625922724,-7.368826976621293,-7.640334948623979,6.138517242138015,-9.098590985948126,-2.210581928016585,-7.288967410003565,9.87817654200736,-5.160692453153256,-7.106576539150151,9.855133310701524,-8.806090311422844,8.17474558162944,-8.99484576500788,9.666428041891184,-9.960355153553989,-7.844694894043699,-6.424168167201451,-3.796894758816043,-9.108419056725975,-2.101675602905959,-9.410983678459528,4.547288590556444,-7.369446499518305,-9.136906431955762,9.958570224788584,-9.854845798973335,-7.399501004736798,3.1753933279607267,9.747546163893379,-5.191625094560162,-5.023722389207853,-6.546717238279555,2.333715361953884,-9.654190765156292,8.823986295707948,-7.643191335238923,-6.4832622681128225,-3.174425412333786,-3.418545743704276,4.666533070689018,-5.454098376669757,8.042284072124222,-6.058648114912189,4.739836838426459,-7.619855941254405,-1.7750502092744203,-5.893482411757377,3.007038738985246,-6.003481025301628,-9.82003184688023,7.653267585063402,-5.984526626729794,3.32491650143761,-8.658394594399299,-0.9562982178240151,-3.828264359282378,-1.591644737746977,8.015084723944433,2.7453147800296493,9.715377788025044,-9.366158900335689,7.622750209301547,-9.515431546377556,3.172254846550353,5.387618466833958,-3.147857837500796,5.312429126944218,9.92144904577725,6.937905582948285,5.725848025474631,2.7607215173416595,8.884388142984957,6.557912938938477,6.6989092492603906,-8.612118589393805,3.2756196841682934,5.236666440746608,9.94245947339634,-8.545147830278468,-9.840578890645023,9.22987477360526,-4.364513368528574,1.6046618638406853,2.02183981683638,4.278524053492867,5.593613326521245,-8.49076644583272,1.482411655414296,-7.807701144702767,8.09835922627152,-6.592527346722167,2.5426993494390606,-7.656223879830115,-8.87352357873645,9.94582711156039,8.964462363123102,-7.392953321124821,-5.378231227017877,-7.409864383725729,-7.642290803097659,-5.890742822324065,9.656624854691433,4.768094240456502,3.2848076805461517,9.944727952462857,-0.2353902001213477,-7.7125380379249115,-9.539710746993165,0.08439947072596254,2.8730413140945297,0.6573869138122355,8.632154306199503,-2.829762243157189,-1.596888902988244,-8.041063980985559,2.529225071818802,-9.088266370101982,5.085069616706893,5.1502170956331925,-0.7196446745225984,-5.937716435402022,-2.8481657286985653,8.967572923378649,7.901219133254231,7.207368629152113,7.916069479001528,7.972817537132025,5.066717653892593,-6.021963682774052,8.03403420700181,-3.6582945753312135,3.0920763153509174,7.95448037922756,0.26074247462876343,-4.452045414413369,-0.37373559282336277,7.300093942017456,-7.46478487088423,9.257708492333336,-2.380773748306176,-1.6200400841827953,-5.810663865539683,4.342734734291167,9.569061359855587,9.927172428840139,7.597480956118272,-8.359962279266373,-9.986669808727774,-5.078949716253404,-9.82576808641712,-9.930557106629312,7.6269601488362,2.8138311617369807,7.978576906432826,4.225752819311615,7.238798878020509,4.5478902393564855,-5.328145925369104,2.913346844370894,4.08846059612787
9.853298565942875,9.981583263929187,4.243145350352545,7.10058320711504,9.982998844635803,0.25599599583848653,4.508984748976936,9.96330378739292,-7.258324934082161,2.4279614699952283,-2.365029306868574,5.629831223683912,1.2015111613503215,8.63922788857729,6.446736266675463,1.7268444421751603,6.265638130238809,0.6625485385643302,9.8117102527424,8.847246566142676,-4.517108882163357,2.121434194033421,-2.382987440361389,-6.541809408029653,7.88414538339355,-2.8198503603019685,5.638470566448082,9.716128349777543,-2.0916084828732355,-9.961691851499568,1.4796632713730435,-4.081359185134533,-7.995916318896201,6.982883360893307,9.477830728853522,-7.31483923883167,-9.371544067228482,-1.6209566526603876,9.634122029601794,8.94356922291243,-3.4329215825545196,2.3005723451214894,-5.805895598456454,-3.818265486598266,9.706357076784347,-0.6751667771532166,-4.4859098513659275,-3.856995729722424,-0.05429454218898222,-9.551208276960454,-8.048341335641197,8.536204437195666,7.118412838346751,-7.2030197177329365,-5.795272723849443,-7.340272374796319,3.9216181516748367,-5.356424585490486,8.453417388822977,-3.571658598495928,-2.011785398996574,8.95764075012238,7.16157952598701,-6.366978430727994,9.097575572028656,-3.1059424063676224,3.26895589928834,7.80812911388655,-5.655751869683112,-3.751848270983391,-1.5617782915720155,-5.411030838231854,8.055787267937502,-3.2920554024365565,7.171192630616165,9.476851942787617,-8.618644390786725,-7.9013470804419565,-5.043569685507883,8.190480412192251,9.277786151763573,-5.621435551035891,-4.461707907105489,-4.986448158286184,-5.257674107439616,7.2823309662152464,8.543347102876847,-0.4839277380761331,0.4898290052815568,-0.31245360846851256,-7.2597715573945605,-1.9087215773027015,5.056147100002764,9.8639095629645,7.265200258806837,9.993754824666018,0.9244412459806259,9.158619646234767,-2.0404966082913076,6.317393784615913,8.610188357634193,9.959181335709864,7.76808475694949,-5.032466269067891,-7.888765047397227,9.905039908496304,-9.98859025854229,-3.3936520153449754,8.214344226455601,6.84747930392426,5.163661020035702,3.0957521445484293,6.801722388139945,-9.371506511555706,5.553798032334241,-8.816100641944995,7.616752533046083,2.8582910216554556,-6.582475921200913,7.679912213562471,-9.931346912659064,-2.107797669382542,9.938407933624445,-7.903650253348346,9.67851971662934,-4.223018327021018,-9.892389778259794,-8.41131473746142,-2.2704447101172187,8.615463203821083,9.991715011599481,2.5011519417824903,-0.772149182765606,-9.372863520049963,9.237669804469569,-2.533751520206443,-6.198995349964342,-1.0255878000541567,-9.741642635613426,-3.803277439897048,-6.59601614776064,6.151645215038968,-9.97983481811113,3.583043516547315,2.0076509021138316,1.6699751419896227,8.870947821436188,1.0087728959978834,-2.2763851882713473,9.644856138975669,9.986235071830976,-5.197689821921734,-2.2257123228186186,4.854870963462068,1.8400091031023162,4.355807628752283,0.6023165709429783,-7.367774478939062,-9.459263427271924,-7.294064377256504,-2.1676903506782,-2.65831630045089,9.901948479258309,-4.265374726015737,6.662542349537421,8.805096945715341,-8.908008046878722,-3.597891176620115,7.723807140715075,5.85185098263059,2.8494423172183403,-5.754556445701487,9.698261250510955,2.5926999174295364,9.509042198747299,-6.077271714120256,-6.286275151182055,9.206806670937869,9.441398407531803,-8.064736151107146,0.14830813861739503,8.11895502202838,-2.4258329293932626,-4.954476456938563,-9.134378686048002,-9.615875589164226,4.585357172871134,9.6900139141222,9.925324450856696,-9.497944879132048,5.273836528535675,7.5716265403973,-6.838466129355687,3.58629418332145,0.4065396562153035,-0.7761807055028154,6.303552804864699,8.74100666426335,0.5879301282598686,-8.315491792080163,7.670331043232776,2.590330912816336,9.99762163837414,-9.766266070283235,0.30373104992502675,9.447176357062263,4.128428774697285,0.23099762897519227,-5.01096783837513,-6.8254356289880835,-8.801905441160006,5.871318286652194,-8.309386534011907,-2.186827021475821,8.342134240297673,-9.207202510255927,-1.5624854524832017,-7.653601633926552,-8.435045036267894,9.8623503303933,5.201452875919829,-6.999233963997536,-4.266375261230031,9.617269713782672,3.921157701179385,-2.7390944112726663,3.241603124310429,7.843737521151177,9.936327346170827,0.030561159341132793,9.851767924690895,-0.6717475065002798,9.735665046591405,-8.277056644962927,9.953192149300572,5.38104715850854,-9.997892065807703,9.76686637160772,-3.2532295207994313,2.5273833258828144,8.83131485678251,-6.734201679962515,8.810537308899223,8.20585444995158,-1.7587416875148558,-9.697709668040636,7.987387972597104,2.6226551467799215,7.667539145633587,-4.072919656135648,-8.158409031562227,1.603428958145214,-0.3983849619751023,-2.8659644697648283,5.964068671609057,-0.7168868037297145,1.3475211679339334,-0.6826956374212525,-3.8473528106680597,6.267369616607047,3.26816683905001,9.911593419841426,9.946028246412604,-0.01333309225071544,6.598687252912195
9.106524440054905,-3.8289946086052122,3.1556294472305177,0.11821344893914443,9.810051790774992,-1.9442437785221536,9.452375001528473,7.803341252082511,5.753209930922998,9.82593326674428,5.548428628410043,-7.155990374994885,7.883104631819439,-9.337045636471547,7.877692892025566,-8.206335065051777,6.869217816009226,6.089178738216374,-3.6637837024513846,-9.742373255667381,-7.383766955787684,6.28331856866526,9.048215077191923,-8.629767739799506,-1.7782546621463542,9.593536829919874,5.230950168558663,-9.7887438023847,-6.3968149029128565,-8.006931403634333,2.386124949191445,8.443355112807104,9.97460106403032,-8.513910028636781,-7.2593329475164,-5.920565665548615,8.54072541843318,9.14124262937483,7.1905821387473345,9.78129480480302,7.512659990901021,-9.953172704885281,3.7115344990966754,-8.857809979848513,8.85041709739205,6.50679360370097,-6.998553141483606,9.439885008878097,1.1139216346896745,2.0876817183576533,-3.5622901841856844,5.792340422530066,-3.9745143890807757,9.981796744269092,7.9089673130734806,6.782174625904462,8.716814631572127,7.748534285286547,-4.781375499403197,-2.974896995054987,-9.751711531329638,-9.59023241926717,7.50041852560409,-8.970400275064915,-9.882105499078277,7.90667937377846,-8.152849843659574,5.660863195803797,-7.194985382868293,9.165401889360288,7.697890406343438,-4.961852031156078,6.278193218884841,1.5556768349389571,6.243531422902734,-3.2457611953931647,-8.35387483973721,0.5721629040680547,5.912825612582767,1.014857806535439,-4.757916911494192,7.523743674124741,-9.271581787145813,6.126546458934251,-2.2385270432292437,-1.8250684986336534,2.1715521615155566,0.4194074929056164,6.588714368008372,-0.4913898018657452,7.122903804380012,9.919797924461621,-9.868389215894716,0.09429223307436096,9.748389375465495,5.146400064456171,8.471238377231304,-8.710386200716409,9.119382666635264,-9.236464128022362,9.634289525891258,9.31839159816406,-0.806674551675929,-9.96449990427209,4.538717128021464,2.116114104716316,9.931342303644481,-7.060985772202799,0.8233864126638917,-1.5918141372577033,3.9182584706526775,-8.394776278988669,9.549246551783499,-5.08216799269545,-7.362641947653307,5.328147114508916,8.493844800215394,3.738777247415478,-2.14963547514549,6.6094716815442,-3.6082194698946806,-7.535702846887413,5.962920941688902,-9.245977938715399,-9.615921682450624,-3.55829060382988,5.806542442150103,-8.777818951513877,-8.571583198267746,8.808495632752948,5.4067691479338045,5.260684687886883,-9.346433079243349,5.700486480764368,-3.945684873057707,-0.3301318430200375,-9.998611102144922,2.8487525002329175,-8.861177322953084,8.279762452528661,4.370672769241918,0.42012942474968895,-7.876602517704773,-9.938725595483444,9.522732330209852,2.1611613667847562,-9.808946122748003,-9.900024675266302,9.134867457972598,-7.031913923299438,-3.4074763857098995,-8.987463685791035,-8.57156584758932,-4.557641067101209,4.419421681174827,-9.28160559903704,-9.949230466021875,-7.58454729289705,9.375017199687978,-9.638058558127016,-8.148024380086913,7.41872094847745,-9.984450723285203,-9.387965045413994,9.352864214305717,-0.030960207160489972,-6.906353619593798,-9.87336360667452,7.798051926117911,6.973078471510039,-4.589225635483485,8.570162772412655,-9.814941897373094,-9.947925076149627,-5.949387014517308,3.338132450040779,9.918769498592148,3.386446912254897,9.283438028040008,-8.093545864888714,-9.9560670440118,2.7751863963100054,-4.2310469930573555,-3.8999372280496196,8.323655606208876,-8.554395294084873,6.287511319953135,4.26842368725249,9.9722807005808,9.856203570550962,2.504028085607972,6.76285436919215,9.503470942398934,3.4613681350267917,2.3532261851806897,3.705832179236266,-8.668513699815971,-8.293678762918642,6.149164442782116,9.105780571090396,-9.902659692823033,-6.1385460627546635,-2.340963517365946,-1.1736027932100797,2.8074097281260295,-9.976885607346235,9.378245520140082,-1.4563372504450758,-9.749827680205888,9.103222285037111,-9.832374437128443,-1.2326493859291645,1.0222433245344842,9.32572142597772,-7.215487552851112,-3.6215748282155786,-9.509322379416957,-8.101770889672554,9.90647833715665,9.048283503026168,6.693341625243415,-6.298643751105256,-5.086449338357893,9.856777968485405,-3.852705583101862,-8.130625797202553,-3.950765295295448,8.993908187623093,9.99634058773692,3.8655544641729707,-7.170545648153874,9.096325613474653,1.2345853325841851,2.588121616463872,7.403146446938504,-9.617547000933671,-9.12065977072282,2.3383217802277585,3.018102752059848,9.457234005293596,-9.809323248951626,-7.298133656711071,6.88888282644652,-7.351550198031278,-8.315430997671331,4.137401534476754,7.506512438825107,2.2351248404290383,-9.848555162073431,9.509523216835163,-8.845209154390476,-6.835943857265094,7.486520052754274,7.6289050418528275,0.9210257867361662,-9.708570066859355,9.726815628240658,-9.958674701926801,1.290192604480687,-6.032348486561851,3.6068301073851146,3.644038085481121,9.988357920168813,8.239686343970098,7.807776925423454
4.333527009176201,-0.6206354931009415,9.893385602391877,9.808252070152419,-7.817618263310168,6.077280420172466,-2.858575974926179,6.796552290169894,-8.841477026355982,2.9969487816071565,4.560579653403451,9.344939113108406,-8.230033187005901,-1.2410878685707676,4.328204125028261,6.44941187207154,4.521043338249573,-4.667291114022566,-5.964832268500496,-6.359977708927987,4.798683712833032,-9.776368320252969,3.3037600135418703,-6.71699020532838,-2.515931959831918,-7.890414870973279,3.579446747670449,-8.35843716171354,7.7499305028014875,-5.113486263984946,7.415892442927374,1.0590441579704475,-9.99844844018409,5.3403318051388755,-2.1465909134200007,-1.7973517963151748,-9.598122898038012,-9.378620108384707,6.65852630700487,-8.120990540589055,8.378380500741535,-1.6482285499936005,-4.037385715055253,9.958097961314188,0.41153945701790384,9.300693054691024,-1.4532713003662572,-2.788883127242581,6.796294246005323,3.1449125940264118,5.492510914424023,-1.0452080982916456,5.953868342267094,3.975874893561058,4.945829728515172,3.7668779893756357,9.871111590396017,7.719594371626844,8.776691492222097,-9.48948948678868,-3.579282507299582,9.828348058939515,-4.076962265294951,2.1837224547473895,-1.9113547181433592,5.847278623928952,8.793663591205384,-8.443216121912958,9.398998271582446,5.766490844795522,3.8470580590774013,-5.665350204783361,9.767624079230131,9.0439968001699,9.836641665305164,-7.175361213813427,-6.277324729627356,2.9614376698264397,-8.251393451270532,-6.613668416374477,7.664636486307554,-9.981493118137998,7.431397102748816,9.30081249071856,8.962689016179814,9.09881759368105,9.76943037576276,9.48273719936956,-9.531288425999879,0.7767374320877334,-9.315690830906124,7.071382955034965,2.269797819771939,-0.9724710234942737,3.7360859169793565,6.3909239834992135,5.802135410409005,9.91955948077831,2.8886841464950557,2.156950435893145,7.924422793350164,-9.506852068435064,9.156952106873014,-2.699203949503726,9.797053589683744,1.623444728901129,4.040658797889323,-5.342603682383894,-8.731844770202501,-8.372254963647215,4.834454316377139,-5.966172609713239,-3.1618544761841036,-7.061271539973063,6.357199163877539,-9.040403634661775,9.019786032747064,6.446945426220212,-2.0939384982946248,-6.302981264057231,-0.3646499751501686,-0.30490028823965964,-5.628147675579317,-7.324479864148639,7.4440410585175965,6.8134265120042645,-5.82275011233163,-0.9482015689255316,-9.05346810173991,9.895730315563288,-7.324783187169342,-9.533109331900011,9.641745399934518,-9.200040869743257,6.689776580687806,7.43454734522221,4.332029695915278,-9.99825771085825,-9.523213805232512,-8.08272896100936,3.134675332126452,9.879572423367698,9.080582338807982,-5.8449250455471535,-3.1172921741143966,9.889009878654564,9.833824613505664,-1.9070849643042358,-0.5664261971006266,9.469214178539273,-7.0678524226438135,1.9244520384313653,7.868027404451685,8.8973156293072,8.0562235222878,-8.19738046560245,6.037203986992042,5.726183279498445,8.358720108084636,6.725072034918643,5.228665922750821,-2.9868577200590067,8.03325939493188,9.174633976285335,9.721208630472622,1.125148507534325,-4.803789130599398,-9.86660633086595,-5.00147426121344,4.60722049236745,0.2760250640638091,9.63378337734954,4.732005685989766,-9.510227729350806,4.234325670539052,9.324270414490101,4.3776428360342905,9.85354070685166,1.509438986016761,8.282785142939225,9.219581345015076,6.490296890834774,7.951118998152516,5.783747879720723,-9.686683223604032,-3.825264892642819,2.0609472091494796,-3.029829196993532,5.792660418273473,8.6317882634991,8.449467008843538,-4.048967826903411,5.573361046319058,-9.96112729791553,-9.89855955424885,-4.965517364618888,-0.5581707225836023,-4.329025605412383,3.773237569255695,0.5531285872557632,4.270436917467906,8.97920696168201,-6.910713141216403,7.642532216110636,9.98587636983291,-7.773373475492024,5.013646634057475,-3.3513601904715173,7.307047292819048,0.5286021306367559,2.3666648743773866,5.941924683577271,9.114718740584788,9.40313250076446,9.061671975815425,-9.867277791401605,-3.640970111228375,4.1526067257255,-5.368735866264014,-4.247120669208495,-2.238758369019945,-9.597824715610654,4.627954656278827,4.139591617528854,3.0709279082916865,5.945300596802624,6.562479558080567,-6.457323287246078,9.926376279609427,9.886169528785443,7.103273679973416,5.176410689656443,-8.16068330966234,6.608317125999999,-1.6657626892611148,5.633760390924458,-8.577722244733112,7.939840467866919,4.669341015684136,2.202076266154908,-8.38639996403628,3.803466857584227,5.804345598824572,7.41908604593273,-2.124717309075921,-9.974773081340075,-9.788603499125081,2.3622324959561585,3.1565621739832244,7.832790158466906,7.849015955987802,-3.7791986930196115,-9.536833620960802,-7.744660245409813,-3.668878976146879,-6.900731450626485,5.611859450685088,1.7286949205426385,4.276919610360933,-9.987521463262262,-9.931657856189664,4.5482447935442885,-9.096562323734481,-8.477467636408258,-8.698404983590251
-7.23067786125781,-8.403882886069882,-6.408183375610965,-0.8978358447463926,8.11942631370818,-7.716799547882106,-8.673714256624319,9.75289544464859,2.372906409272021,-9.58616626799855,9.25376391697156,-5.0104025840759,-9.491921195760385,7.2475124816624845,-4.900137923994693,-4.870864068055537,7.180375789010789,-2.1194838914512326,7.99261330165942,7.738088419316883,2.8823137096884555,-7.496981230082216,6.526101220702122,-9.343620471084032,9.095113368759673,-0.0953613049722879,-8.72898651145872,5.692270694417963,6.175849177564908,6.772726284235332,-6.498252432904214,-8.399686960323518,-9.298004339537798,-9.993173432643035,4.580427464628033,-1.0761661090597991,2.8368387263262456,-3.8788059931939705,-9.687264026631379,-9.091587979641124,-1.5320275543222088,0.8234542284150397,9.410719931390117,8.42685325019482,7.171702293598015,8.017462823781015,0.9125337355476884,-8.141905161585356,-8.505879476544427,7.085817457039262,-9.362288516949427,-9.942721834393248,7.303435391350975,6.151191186968958,7.099350642086961,0.3070600164303432,-9.635526369399509,-0.12740451519530005,-4.997799049792,-4.108127576437233,0.13762119118943872,8.55272180926281,-4.9071102133952405,9.607721115931744,9.859146455511826,-7.269830976087574,6.768054628232464,8.502780294024111,8.30839649198902,3.587103506807386,-6.99771897458977,-3.3391160084118994,-7.571219289581188,1.7487114150467402,-1.6446610892089915,-7.379922234212183,9.827464584554367,7.672085034342421,-4.016613298559568,-4.627187278006668,2.9298709802564646,5.5558701794447725,-9.760573204815323,-1.745154222766736,0.9068568452439845,4.8898326010527144,-7.208042611639616,6.740849376351227,9.109378769128858,9.154301914998442,-5.142496664222087,6.1676345822125604,-7.6945516880438785,-5.101615665489732,-9.945271712208962,-6.3250981310580645,1.1120652789774645,7.795223469751792,-3.620445481873091,-7.759025663796265,-5.899846403803161,2.611855730929772,-8.235086146693495,3.127066433198574,-5.149133222597285,-9.338614826266145,5.752972441022808,9.43724548706316,3.630847209358164,6.668908565307632,9.36466884649438,2.7738643682181436,9.582759802825125,-5.6535993414998975,-1.399348204625177,-8.565701277856732,9.811787378757685,-9.577075702175096,7.380524921912248,-9.053646501057095,0.3631793956042184,-9.725667079935418,-0.6013682265234834,-1.0039151711693037,-3.3677803042527987,-0.13094394524664743,7.020984454148504,8.503721763253278,9.515115273318068,1.0716488592598044,6.623197200444922,4.690283215591823,8.981842297012237,-9.014829303585453,-6.03007905396265,5.799678014982889,-2.3815433340243057,-1.0017700418940443,-8.67050796666859,1.2285026852483316,-0.06105448773212174,-9.85566001852323,-4.918391621071679,-8.613014891436425,-6.86060333275824,-7.331496596929634,-9.550027948810278,5.934872723817626,1.4984817466064904,2.7232757465766877,-8.722988288348894,-0.6791842978492717,7.9423534645800835,3.745944136244646,1.8481680985041764,-5.504077298692838,-9.444662368465815,9.609974618770858,2.275178531072621,-9.461824110331634,1.1097221802484754,-3.2674062390678733,9.925826176831942,8.610666918723632,8.462796377864246,9.181904020239378,9.817338225298302,-6.875287140311377,-4.592870445814389,-8.452120274924717,9.455593022630822,9.174325330234113,1.1144456143937216,2.4744922380525516,-9.537245661789504,4.591467479419514,1.8088157845325785,-9.369646767729165,7.361333198605853,9.799129032325773,-3.5445645864038084,-7.738842657827788,8.661079651975534,7.858882915944706,-6.064603295106009,-6.675199635062928,-8.200699266950304,-4.195741810109617,-8.764185892079757,8.007711923088447,-6.1128726011756305,9.407017694516403,-2.7663475960571544,-2.9923759523047604,-4.7501861191834305,9.448011422390586,-4.724598771532677,-3.1900656176486883,1.6513371218341,-7.093415013372609,3.876975926005329,5.221350530864462,-7.693682170271581,8.70548287151862,4.488381242829748,-5.754428038165209,7.348927948199673,-3.5543385598295982,4.103456833731613,2.3209074340221933,0.2321886948284675,2.6311523321966623,6.974027348183924,5.437932782403134,8.159144018668941,7.707470458217765,5.5770908486826265,-7.854525593197896,-7.823263775122054,7.8510648615840095,-9.742810487010983,-6.399589598549813,4.439715770662032,-8.899150978206297,8.312269955173639,-0.006530443832113875,-6.628916529634532,-1.359274886089283,1.5444255948125711,8.897264604076566,7.3849528163161935,4.288919534461732,4.001731369353626,8.85836618737041,6.569315224834279,-9.842595322251789,-8.578294016982039,-6.567338434244366,-5.181988666267629,1.7103036498724187,2.9994536968284295,2.945473673546415,-5.631100905181279,8.084429283814435,-7.098285124949524,8.064160477248613,-9.685905477796744,8.325405913392089,8.652365964917307,-9.559979494971852,-6.825772696293668,-1.692979707034251,-2.4038940501341033,7.083900833428325,4.2153203415413305,0.971834024955692,5.324096343944039,7.188905046997184,-2.87473096376365,-5.827986275732011,-3.3036977822301345,9.574249408090337,6.46047688947279,-6.246213729557937,4.599371064386337
5.469207421586203,2.4323456461002664,-8.844854576190198,3.031262956637576,-8.821052504059812,-6.393906110718643,8.73205007775834,-4.933380877971378,-9.034047964915128,-7.245501620318402,-8.190091171339436,-3.4321806793477734,-9.99165357722458,-9.321989036363432,7.515149273163628,-8.765504024039918,-6.284433327445996,8.774919283709233,-0.31615030518871556,-7.740899864855766,-0.668765430740347,7.783765313116966,-7.290928432940682,2.940931283130566,-0.827634296377763,-3.0535180658548224,-4.047617073101657,2.541491240611582,8.847696866526064,-1.2585596819476184,5.22217791526854,-8.432737770597676,-7.092265827025136,9.975814611276109,8.134637047050889,-9.18264202126975,5.453189093533552,-6.815380989896175,1.1686937492320464,2.447972765519255,-2.1409028706793265,0.398937706688848,3.5815051744187194,1.2111923821961845,-8.753250977856514,6.321311524949278,9.354952586129547,-7.579095812386533,7.783263371783891,-7.7519629724326045,5.136649976429698,7.56418685569112,9.87566166314365,-7.560193761879367,-4.370990184533606,4.211456489096991,-0.9139709571192185,-2.310964402452351,-7.185548874936335,0.9601860081972013,4.2633358762807525,9.170417273151262,9.630560733776429,5.793393155011485,5.683233689610814,6.1284446663867,5.313966549072595,8.216693445206092,-2.265174686170626,-9.568944887343742,-3.85584219881453,-9.986568979245167,-8.768844778313579,9.23368564164215,-5.4940624842314,-8.04056882802157,9.392495135339939,5.890540399894811,-2.4389921182277106,-0.21829197210128193,0.552114448165008,-5.447321338332804,-4.920880713789919,-1.1647449801884981,6.453780088940366,9.925687882356062,6.433540111031949,5.429860132847418,-8.519958127594801,1.7672576922239172,2.557038575424622,6.006394595707388,-9.82448935954789,-4.010810052271401,-1.2163198101678587,-4.991899373210345,-7.0139433936946745,8.079954597097574,2.3536897781990582,-9.943917928276276,7.617272058919462,1.7060870191179163,-7.7940474535609106,-5.563498239936794,8.171595960077964,7.561695824949339,9.703696001447188,8.015812395822717,9.41458546526348,-9.180767833729623,-5.921429308912042,-9.716703723858354,-7.332334892271582,-1.0738228750353844,-3.4686702863699033,9.858122465053818,-1.5186279053171727,-7.282223630343747,0.4201675963493745,4.857887138813442,4.525158802355154,-9.27167794525793,6.16181100162488,1.1814505237011836,-9.99819678393822,6.0109659344832025,6.904642104619311,4.392126110802071,-1.8955288781491504,-1.4028853667376247,-9.996780734046844,-3.780834308306338,9.566757185909525,-2.163403887494672,9.101661438205635,-9.831190986766746,1.2099375446103149,7.619134894949301,8.419371000411958,5.614675614231989,4.461684514777949,3.076162395843517,9.81696316494235,1.8758763335203952,-7.0819466927038714,-0.3237176065332399,-9.886393015517715,4.378364164055496,1.4963385845556285,-1.6062682588063684,-9.995524265174469,-9.68014809180156,1.6738583853259286,-9.552695550096908,-6.116208389456208,-9.709900355951053,-9.19852430545306,-1.3580032872428212,8.487696663829388,1.0946295257706211,5.399048345858204,-9.8660444054968,-1.1237089016545045,-9.410069767328084,-9.907449439083575,5.894558406924738,6.866142191317575,1.141212061926094,-3.099439119278424,-6.932409016372515,-6.0182469964912775,-0.4736168619428067,-7.299122344808589,-8.917006194596098,7.925111013475589,-5.820612365506284,5.577295389458319,-1.668257892997552,9.88568608591767,1.0023503197114767,-8.81405972691843,-9.99957697448908,6.477582602782226,-6.203299088658108,-5.2639267266694745,-7.432732423784039,3.6184570712479394,-0.820379390822198,4.319911551990169,-4.81865342060542,9.144204179934354,-8.259385379250313,-3.940004778447416,-9.320200269685461,-5.3989040186241635,5.4537839284947776,5.341826725839286,2.017501499288664,7.071581735435858,-9.968166334474947,9.184578237555296,-0.6935827194441249,4.327863033352811,8.841447796669883,-2.5651808452597678,-0.7494483457868117,-8.588330152052256,7.61610079923507,-6.186174626267178,9.180209754142856,0.28234219740358135,-6.682278212053913,1.4509045736930268,6.890483779602917,2.21657118602218,-9.795259676595187,-3.473274076316404,3.4194334557885524,-5.877644622934037,2.3766059077654145,-5.455660939959003,8.371232692153981,-2.765810633189374,7.406553865955174,-1.2731959850995,7.585643694373865,9.891879124676342,-5.711657705280238,-9.264588906701942,3.914749276066659,-3.0673876246993137,-0.4755414252230824,-9.956152685379607,9.857751121748453,8.962376026618122,-3.150362438369876,2.331338784290498,-6.971479274047365,8.1960111439048,6.592398870661322,-2.9212238966883977,-3.7202087444736334,3.5429226630617903,9.870148910631768,-3.5811733705106112,3.9099083661611758,-0.5653264742199201,-0.4473754179875957,-1.672144329989572,7.927162483546284,4.110845618069697,4.904362888237614,2.704039892417017,0.951190442066881,-9.516480880182844,-2.3237123004466262,9.658318210896887,-9.753912779245224,9.803459835108413,9.99754414889266,-9.663267776532427,3.120138125813069,-3.0569395046314796,-4.7069026420787985,-8.469189712199364
3.3427267413586126,-8.6330854774622,-9.845191769052455,-2.5177531247138045,-8.736784483789378,1.4162257650070273,-8.364937121212119,-9.87982594144167,-9.793847371594607,5.120853596219229,-6.7592958017391895,0.45921796303542983,-9.991132314249874,-6.673424298933601,-1.6439022027966512,9.041247740444495,1.6400651013733558,3.2275414104479747,-2.4500287248334933,1.8506627185293887,-5.932014391416818,4.720631778543313,9.677049640999298,7.1895815990514915,3.324785490606713,-5.566454879296277,-4.069303608353479,1.3614099945599714,-3.2444218739318424,1.2774634731770949,1.004033799401378,-7.5457337235358874,8.103465423858454,-6.83520890642326,-0.175252560754382,-8.382234346599557,9.775083805527846,-1.7803553872617464,9.814549980336936,3.6003314050667186,7.302789005363998,7.850963116812572,9.999880209839237,9.57641683329332,-6.773617428428575,4.42105304045084,-5.014201762843059,4.242206935963603,0.38602373990870653,-2.5130188752258213,-9.499749467474189,7.0821193812373675,1.7354367464630354,5.590332058260056,-9.746223500967616,-9.093522954904934,4.625985700571054,-3.3005748309969034,-8.182211263799525,8.756532065523757,9.219026122013235,-4.729104663789912,8.410580955275028,9.831136241941074,9.788391911282725,7.530748359964742,7.723076449525237,-9.110543516489127,-9.679511824617547,7.2254617860649315,-9.056071883151564,2.2249715448093212,-5.387779172051716,-9.045746588942908,8.487723506513891,7.800030678043834,-1.4999417162858588,-0.5044763385602753,-9.92377293773979,7.5513167926829965,-1.1206843736306507,2.757132892221006,8.990057132668017,9.942066810421435,6.230719938146722,-7.434455189750342,3.589036814686361,6.951161367469201,8.235776819280723,-8.303244923771658,-9.886980650900064,7.141274277669041,8.349499540590386,7.311757775571385,-1.7022073210385051,-6.659880191779539,-9.68714253411083,-9.832842259999163,1.5381923444511933,-7.672296061120111,-9.98959247723846,9.441374893075693,-7.320859862409167,9.522300487782497,-2.689119558554138,9.748838927667943,8.6943219800136,9.538627996847579,5.225338148856529,-3.759675990589061,1.7241699634843677,-5.953915821016439,-9.290595693370738,7.404631222648659,8.620835455283054,-9.739715095958276,6.372728695478335,9.43388896081293,6.310836301158387,8.714757507865931,-0.8238327287806886,-9.574583581590494,8.088473282046508,9.642625140737668,6.829740509375238,9.119425020530347,8.910767660063998,0.7833792650117513,-4.483483022873644,0.6312561511509642,9.992676491953022,-9.918981295663231,7.432276545340707,-3.699570732641523,5.873047119192143,-4.287823139224939,6.944608427812096,-9.02176524886277,-4.849868543246624,8.93026169340305,-7.484307736506542,3.662124443906027,8.206029968399084,-7.347430886316698,-0.41952128982925174,-9.966526892113798,-6.7756000669958745,9.554377901142253,9.92850549237127,-6.624122717985902,-6.188111600086088,3.2360253231826466,0.7732170130674909,3.096588558650664,8.992896865712074,9.896731753755564,-9.729937622155056,7.264053222811129,8.50259924024864,-7.48923947185944,9.380017803314066,4.7537117324748674,-5.628340679926782,-8.361294433769121,-9.48533430630681,2.7942261610729977,9.205846196607919,9.962976102071826,8.722502578201063,-6.554795058724778,-7.8582568624233335,4.461893204821921,9.622873335383076,3.4345357731564645,-5.6851380635091635,-3.428814586128852,2.0565982183153633,-6.1771254643287605,2.363911437819662,3.5393432812379686,-6.365108005141111,9.58598071703765,-4.87673068378188,-7.451846283554003,-8.944536562367572,-9.746159873719018,5.311964248073894,9.953888855197683,9.740929362343396,-6.31136814781651,0.5609534642829779,-5.172302311714337,7.3237613891127085,9.965767201924463,-9.719711098429661,3.318131150510543,9.305481821230302,-2.7820004940886456,3.404797537375014,9.967226555766125,0.6399646764861062,9.43160239751876,-5.62626064260457,8.392726246454043,9.056663726030335,4.372575763406285,3.8512689082769995,9.151621895814278,-0.11096047945504495,-1.8169494549504717,-5.1787039619886155,0.5957274434174975,6.352013773065757,9.103864360682683,9.97116681427032,9.994840824250577,9.413188672754707,9.426851186451426,-4.437473286830136,1.0950355226212984,-1.6277241611107662,6.258487651976043,6.498063331934398,4.165991388729088,7.934986860513881,-9.852461032488852,7.96138658282293,1.4063249558263617,9.73913980955409,-4.443572245625225,-6.556862628062517,-7.295840135121969,9.987377439742337,3.8705603788008744,7.354189173358261,-9.488834077454296,9.449887527695601,9.599901981553243,-3.5836244735599467,9.85223896250626,8.46573028363607,5.892137098419533,-7.176474125486914,2.548648095618934,-8.855827078181095,8.003519588881018,-8.225628681246766,9.986380309906755,9.934567794872454,-4.036117950829002,-1.7506442324063212,-9.87509161424594,-2.492180016877567,6.112168536604866,0.1188712035440691,-9.239814023960717,-2.8124049499654618,-9.85504208571563,7.541338609623887,7.321431150575533,-3.936518293080855,-3.2287706152803963,-0.41340168515701703,9.748322372909142,6.992979791011927
0.19449154832977378,-9.882865441160547,-7.960183021888575,-7.092142927885264,-9.87158307279402,4.686321349350246,-9.783179471588053,-0.6473412181345859,-9.85669901654717,1.0288479031908526,-8.578235468231963,-7.173582204764525,5.814217744663241,9.752825445331943,-9.553211192695954,-7.969288298422729,0.19600945115461377,-9.25377534474274,-5.261439559821287,-0.20954611914315718,-4.046987206670955,2.6768192698704008,-3.729726653573029,-5.706539988469858,-9.996276999100397,2.3793523832642123,-4.345642165834979,9.618240993961143,8.398016059574864,-2.6260332354353597,-9.556226144686585,7.9236984790318035,7.177819205517933,9.032561430314427,-4.573851007778968,9.311029463391268,-9.451734426869649,9.411076717030628,-2.7574145948780036,4.814274754655017,0.25991587159130125,8.305371537623174,-8.470089138198162,-7.643828735587031,-6.956935703658555,7.111165239417771,-9.553740762335414,-9.577512524880305,-9.117874425796316,6.310811136241763,-9.37263119506049,9.794134728806377,9.69216072036752,9.664150866092536,9.150524781137953,2.087276906668435,7.399237373438364,-9.487183805908069,1.5176305968937311,-7.121098794658309,7.873666434745333,3.846943386875333,9.66634469608574,-8.147272299546664,1.5427703343657875,-1.375162989822945,-7.178248060205715,-8.26737681502751,7.774495711742686,0.4148874119674737,5.952272834652788,-9.861822717168407,-9.789069806955487,-8.540301292631556,6.520468279076546,8.197918570990968,2.616507235073205,-2.7667984442853086,-7.619046780248836,9.390275094764355,9.755770062179767,-5.495808670845799,-4.055798426764659,3.1575679667120395,5.788520502864428,6.623085600433895,-9.923763734100973,-8.351490854191676,7.428648163996885,-9.865140045544814,-7.194338133087986,-0.5249476214207043,-8.269644101482378,3.7450033268234044,-5.405788673526519,-5.841604447122384,9.011429943087736,-4.063672272790479,7.575057511647129,2.7795009481053534,0.718836892296018,8.109224703961498,-2.242543555243218,2.7311813496293116,-8.391212918990101,-9.846060093398341,-6.312822175229849,9.566424737520546,-7.210572402026629,-2.778911345492906,-9.762622374250972,2.3725262333850177,1.6902441803854682,-9.03665743410017,7.642170462478559,-8.98319580841175,5.311917567505529,-2.81930715396956,4.553320377209506,7.525294954127288,-9.996328370315126,9.750198816176423,-5.116726877609005,5.603919788242441,3.2182903746057328,-3.0460232488146017,7.111610038118805,-9.448911337065184,7.3437456627623385,-7.061358099413112,2.9476630878622485,-4.837560279628513,-7.732115137111555,-7.782269502875051,6.234450069539918,-0.2114891614890979,-5.461780261028718,-1.6241871646993271,2.7780293074678433,4.340425241815929,4.4291817858233085,-8.1643361156046,-7.9921460444878365,9.683506447617669,0.05985153774827401,9.336317259803188,-8.337816263281615,-0.20815595108473306,0.7862546225080149,3.0425636621325185,-0.4982981480392872,-7.602169260580588,3.0523786426545128,-4.132293279278081,9.127276950703639,9.171654500734961,8.104545764265225,6.290577322450719,-2.9641984010118367,8.441362638531023,3.2761615229114307,9.280501264321686,1.1814638614712925,-2.8302177341871024,9.315382617525268,3.51140640045139,9.466355128425137,9.906658627704774,9.840993937297018,0.19515133647961003,9.93214725413439,5.985690345450178,-9.208719925482129,0.938996091796934,7.210783805517104,1.4874520916207024,-9.956400827222376,-0.3865852747999855,-7.763287915841463,9.243582134287758,-0.5269353270140495,-2.5857669650791038,5.929377836508287,9.819192718848232,5.979986702893708,5.64575933354485,1.5673859091952256,-6.055612918833061,-9.605182705064127,0.7918803699488084,-1.82865557769915,5.554710914919577,0.07892323310722382,-4.419179953392989,4.809376634670423,-9.919144214336978,5.316148762592992,-7.512984111427942,-3.566089236476019,4.417386014665661,9.246221129410308,-2.3191440599510105,8.454082107166368,-6.677397399203113,4.651514651776451,-6.847622795470254,1.8970049127416786,-9.41862982395584,6.905909956481227,-7.4476359441637525,-6.025159807935064,2.775342054913459,8.245535273820217,9.737720087353773,-9.107431808761996,-0.6482817416126263,0.45914242037446673,-4.929499861352781,-8.977536056636378,5.235624543191336,9.511474844007134,-6.661123287919688,-9.906140689567241,-8.619054445733326,1.4369880582447454,2.4403912333439415,5.498741591570864,-4.979591641960766,-5.935885991140289,-9.398705697287895,9.796104042582755,0.04207358315431442,5.361414511887317,-0.3891923801049315,-9.805518321834617,-5.023778025945889,-4.8686935468717865,8.129497697045547,9.84197739027634,9.834028178160588,1.2160405221736295,0.0961377741615923,3.832748705204508,9.338796951242724,8.447004408481481,-8.895734133559873,-4.351496836318785,-9.69357030046465,1.1497951251108804,6.185350178036535,2.006200772842461,-4.544857024844827,9.357355749123899,8.45956882123839,-9.317652016923473,-9.943940466045229,4.344655512322855,-6.080502499783633,-1.188702979526708,-5.334443429968906,-3.0828054181262274,4.820576466645253,-0.2983922672151944,0.3626793778850794,-3.210277092879878
