-9.69161630232363,-5.786505862937471,-7.266255303227316,-3.3257589058343395,8.514195238243387,7.968363362194507,-8.560737159513412,-5.440223159060142,-9.339991347474742,1.3078576534116273,5.272781306140831,8.988733455912863,4.408961277003249,-3.8661950369771474,0.144966037962027,5.798498627203786,-7.25983248705513,0.007421948380333276,-6.290163261037878,4.050008478882477,8.820794333304269,3.0652933120166885,-3.4623529637425525,6.9281673040974106,-2.8344478180461112,1.2570274845268607,-9.167157691806407,8.462210120400869,-5.169455583513564,4.199748348848649,2.044804115281029,-3.910204808650829,4.187666413431629,-2.272207473082509,2.8968186976855623,0.08058521810687935,6.996470195254318,-7.562775429106305,3.270054734444044,0.1479740796706137,5.395364231046068,-2.850661155310578,4.943091822827109,-8.34337020565331,-5.548175412708416,-2.396714147143207,2.0798220871732305,-1.663257393805117,-8.664498292885636,0.7566575629682677,7.237175255033057,-3.1362308715733525,-5.3025642572083616,5.12563652728843,-0.20077680733968162,9.293976146809522,-6.14659630099788,1.5800083503103313,0.9429129910943836,-6.284548857463388,7.657541505885644,-5.822076482325837,-8.05746050057275,-1.2382722229907075,-7.542921083019632,8.796838439456,-0.27834277285025855,4.171657594389364,-0.058226102508682986,-0.33640547625185313,-7.513135918346153,6.965755983178369,-0.5960017376327267,8.38999088363406,-8.969705387422293,8.344165786553392,6.056487080669914,3.072901746507139,-1.3533905230236458,-1.385452660526081,8.756603023211342,-6.441633794952468,4.360163853423952,-6.684548264352012,1.308942408714577,8.616784501288706,8.826127085753916,-0.14551055234723842,6.383757002099687,-2.5286394376449732,-7.642874157596369,-8.95122626689583,6.232296839771679,-2.8759225833863584,-6.9831583515457645,2.8633658037896477,6.360283528620227,-5.73783593293189,-6.449953480471951,-4.348738780954849,3.1894190185548696,-3.6299435265469686,8.163925368169707,4.519877498510716,-8.673500213756538,-9.557559021996402,6.377979054826869,3.40284846506651,-8.285185864726358,0.14046920318711964,7.695796261947481,2.266766562461684,-8.079518921497215,-5.211566404852949,6.060138422567828,-3.1012103434722027,2.9214397128071488,2.8037077028317983,-0.7429083478630787,-2.0571173090400983,-7.263531940313213,6.674202248946752,-3.7972661207324414,6.100579493284165,-7.040521619554245,8.388895530350489,8.730205510903321,-4.374573911381718,3.9176192569963537,5.516196854615189,-4.982996048359707,-5.575127562654324,-4.366385708077502,-6.811631593634388,-3.68200925107461,-7.53562535652206,-6.061531232855472,9.431895567275655,1.9927454939587277,1.3632664240465306,-2.509342472541234,3.765808328257717,4.335290284913684,4.118956371422927,-5.550593843158722,-8.22922413933077,5.661040689176103,4.11802447727036,8.85469148068437,3.249515367324057,8.60672053658915,4.605674520344486,-9.123562070135634,-9.246582009613507,-8.287108786186618,8.83678997619537,9.645149106204661,4.5939665278649,6.523450581409325,-3.1704602592145457,5.733714022238851,-0.9763720049795828,7.679485338469256,-2.5524519673899198,6.5957311628712745,-3.9514518937928833,8.405608147010506,8.985407718093922,-6.26901223769981,9.575380864363016,-6.12736138358998,-1.9887077606753438,0.3792666517305149,-3.7439043824089,-1.8991171898061023,-6.613041003889056,-3.3302860042611706,-1.0842340519030764,-9.009898621235614,-3.0573020410008303,-3.3308775576493788,-3.0282108508693315,-4.342265470834159,1.131530363170658,0.4267179744098333,-4.464033454509863,-6.592084055448069,5.50558417276947,6.9967001861076135,8.122319154293654,-9.324347061191137,-5.687939629901235,9.945984694722101,6.88388655974519,-6.671183415566398,-7.433300273341466,-7.965753476374255,-4.502715477597532,-7.718438645685374,2.7306649223924335,-3.41380790797951,5.3574161524188035,-7.746883399959339,5.557568040048777,2.766262266634282,0.507207659079183,-5.316703611720039,-4.426101548843951,2.2879987980810004,7.649212928875176,0.4705524484693616,-2.5965372585421824,3.2806417310686813,4.1159896790356125,2.6302400612320933,0.006622017793889157,4.095364845387167,9.12637774899315,0.6078800456502407,-1.8991401741905265,9.07072052815235,0.7599431137173334,-7.201029134530243,0.03701337559496398,7.756565183883603,-1.9947658468119607,0.005259328661431084,3.455680492925902,7.512380054076036,-5.202841011496892,-0.22442532169894136,1.0655445165133588,-7.212002508014056,-2.283639698929684,-0.34059693944937913,-6.665303003740978,7.463152115754442,9.628625668906537,-1.0548047334989636,-5.034188624353392,-2.2927313825526516,2.9904903127543854,-2.367222008292713,-7.523002435333696,2.823369942307496,-2.6389196064773017,-7.04842651660812,2.7137015104857487,0.1113376151263551,8.469889721648265,5.794401863138183,-1.91330268092924,1.4187612990274046,6.498514533016827,3.1155569393788363,-4.580106322194336,6.959755463397963,-8.979018854621916,-0.10837515560014332,-4.200317114468978,-5.714791472961106,-2.7733556774231483,7.145976642260807,3.5959878724953818,-2.2371983514965574
0.7538953743960568,9.703694330087444,-4.280069140436303,5.271180670595403,-4.128935445048091,1.2538010866914728,-9.172799496137568,-6.421956301407464,7.567603045515163,-7.727497412860597,7.689323547430432,-8.707144739242045,4.99824713459117,2.2960605076192024,-4.833617342140588,7.287275081859533,3.5507691875895526,-7.331271061898475,-1.5324027097028456,-0.12186049343973704,-0.25726581764014655,9.212445660441237,-1.2774837020024115,1.2024874860302892,1.7326201680872166,5.478693842404234,3.525423544527104,4.910831326356445,8.99139604670594,7.949769015822622,-7.5863659734046465,-4.8947522342937155,4.166737684868352,1.952206910283171,-5.348365206091647,-0.09076592057320099,7.427028856881553,-0.7743256815628321,6.498653823825327,5.82266438821687,1.932537813117769,-1.0965701326370236,4.360718182511525,-9.006865652548653,6.436278316321159,4.4629002943892,-7.132834319497478,5.224390870797285,1.562960216981729,2.1271178937977133,-8.390848531870587,6.432650376858167,-6.903014632269989,-1.2545430482175486,2.2446133251758345,-2.4530153908392824,-4.911720037468418,-3.2815806588202148,-4.885875184117427,8.954860318875916,-2.054540679502855,-5.766094220332234,8.26726038351401,7.1238406485467864,1.8179766624010414,9.515065962829292,5.921012438465448,9.384524275564416,-2.1668812373545503,2.442025498140729,5.975401537242887,2.797716937039885,2.2597431811464164,8.110256790983632,4.635748940192492,8.859007685184213,3.4830745749726626,-7.007931693598843,-8.575070548417676,7.148423698379124,-9.38842657594106,6.526587183129043,1.6171741907915962,-3.6088530899830236,-8.552315906697366,3.278215511575742,7.315206702303476,9.851665864039221,-7.43642696407696,-8.490881355285799,-6.777790155554499,-3.700870061251755,-1.6345592621882474,-8.195951436238035,7.670839491619682,-9.950736437332445,-6.424474055782647,3.3685699368930053,2.251190072551293,5.225929520777132,-2.1743596314967824,8.665435237243626,6.494156961926171,9.310564677965145,4.126989268971081,-5.180110029024349,7.673220219775855,0.6647662733037765,-3.699599340838372,0.07622616775239521,2.8604498880608222,3.2328001387543264,9.465750685013909,4.475691238784817,1.1403670192076403,1.9411577266936866,8.129520865559252,-3.0102558425373296,-7.828148128745746,8.473867776144697,1.990221828791609,-4.496669775427685,0.4150995198454188,-2.4257662619001095,-6.8846255060396055,2.130886455706455,8.254268247558048,7.667347001542801,1.5022601592363447,5.319351254376405,-7.106709685990282,-3.851477922629945,1.9167394480173354,-1.6493988887594058,-2.3343488684222935,0.9787832748229626,1.73144120368842,5.6129781073863825,-0.008025958667378319,5.5704106703613,2.2562690718558054,-7.167673415896446,4.499611739389616,1.7375770940158575,-5.99562436296393,4.911770333111964,-5.04113016156561,7.00614943442483,2.1957456656256022,-3.299653901426378,-4.862060570676875,5.9385673143606725,5.648088245730646,3.515771097324746,5.394622298444683,7.730971584884203,-0.3733060605000178,8.14025366845912,6.492019856073186,-5.906690660223935,9.658370724458056,-3.996771731829911,0.362583405369689,-1.4329292482788727,-1.304938364941587,-8.105231445110672,9.90646698184986,6.754741806387831,2.68881692981714,9.633938256001802,0.2620429711191563,-4.755403716596983,1.1550006376630964,3.5573909377320447,-2.1599380851109116,5.099290465704291,0.618269591136726,1.811521447077924,-0.7502984570380113,6.579088815639839,-2.381081758560242,0.014027848651889663,-0.8806626949069476,6.093974903580714,8.540044833992432,8.784549746505935,-8.397288010447514,1.8656499970618243,9.125996682663898,2.5615957566661955,6.6939041028755515,7.888651247822617,-3.940599595598339,9.67555671444097,-3.8577531179479108,-1.1775365027329974,7.708588844761219,-4.526284616355966,-0.29000788327289184,3.7308386373632207,2.823596623414134,9.392918402101694,4.694118974791963,-0.8675714031836628,-9.891001829646436,-4.3347454132022145,1.9191359507470245,5.43102913025781,-2.3451173704996915,6.721557144774855,-5.9482397382814804,-0.20107484065413114,6.778699871060004,-0.5049054147113358,-2.871891687643865,-8.93892473297851,6.826578170985699,4.393073794737023,-1.7535899759178672,8.665328583736613,2.9458712698326304,2.2457898836120997,9.789279160382344,8.187294242812815,-6.057808040352333,6.8627956733192175,-8.854493000598096,5.734907000207338,-3.5700115454696837,4.543886658053514,-9.129746373712024,5.081733760181096,-0.25393990360818464,0.04401730544747193,9.733275165303922,2.2725016863267116,-3.4925632813430756,-7.1023039846562845,-6.826519011704407,6.747299075851356,7.011468329027638,2.012035307902879,4.965683815199722,9.434011282175607,1.820344264832765,-8.045154806416116,3.5831549636236764,-1.3792865341268838,3.2678037984400996,1.8064173296468915,-7.482181883002485,3.6279069454462096,-9.726769347700316,3.168436130903083,5.063525030519102,-8.996780394109562,-0.44125026166474113,9.298834870852923,-8.943479844634673,-3.3922221791840883,4.882426060995313,-7.931420219895503,-8.506669320611122,4.072283001597498,3.2759287574531335
4.231165382636425,1.1632203273231738,7.901754978731172,2.3519594339705483,1.3771901374126134,6.752023039458651,3.9025094336350588,-8.942375899266931,-6.213221861262949,4.232103738591774,-8.599065006961577,-4.931438156944643,6.987394638548535,6.69609697649344,9.803542308899758,4.648093655271171,7.8264252070162925,2.7577949941358306,-6.66488481836454,9.468076584483747,2.0548367151373,-6.49053109814065,7.230586487043328,-1.4534808363845917,-5.976343965065045,1.447634227506415,-6.477042909572248,9.396963808683058,-0.9543862338770008,-5.172332544767439,7.610462282420361,-7.738164644840503,9.365074742362506,-4.0873288267433665,6.348719576095413,6.358867110474126,8.49824810905411,9.347687120597728,6.691302753409234,3.141707345619789,-0.6139768994995376,-8.537198326981276,-4.4059123805815625,2.4187785658779473,-1.8567221790436066,8.366008365696707,0.28054896801940465,8.195641832292834,-0.7577234042077325,-5.861581049449676,-9.195661829625816,-7.75572746480324,6.2529635576964075,4.461080685854675,-0.7312101889048881,1.0545447178277745,4.292870827303477,8.332176888921378,5.417706173596599,3.200869338292782,-8.136376808770327,1.8580353142927049,8.29257303066559,-7.980338365338062,-7.76147063799913,5.994043564399696,-3.4909255884781594,-8.51600630710764,-5.565380655467234,7.016886265094305,-4.114452653371033,7.914045548073986,-8.83346206856532,1.651655899407083,-2.142578637914519,-5.031621853959085,4.504720452017416,-8.812432374134827,4.646727983660933,9.026733620041743,4.033134750732724,1.2089568583218413,-9.474714479857283,0.48771399278337035,-3.892308475210671,-4.861914702488694,-2.0846817491018124,7.791968561871116,4.494066195869131,-8.723439883710187,-9.720110577937703,4.73436971558295,-4.564869206611734,2.8770186718797035,-1.272344370952891,9.23827922122106,1.5298354351369046,0.9315231039072773,8.658023328521082,5.379707848748447,-4.09938646772942,-8.102361066068477,2.5469944385443792,-9.426083879185203,2.221127986839786,6.10977454597875,5.654886177011294,6.505914942383691,1.210169851974575,8.833004588206672,-4.388492598134452,9.044729338764789,-7.85191438329962,4.487755703243139,5.254097758970264,6.293409069176279,-3.1565079144042874,-8.324961898312395,7.583584258659635,2.8612364658999248,-0.5235690659538283,-9.435584147270404,4.276245480093622,8.549017458616238,-6.15905608602766,5.515142514898509,0.05792337680501092,8.249762380665771,-2.512848505373023,8.2847726678656,5.912733250440489,-0.12197964018956897,5.847990769287615,4.915044424631192,-1.0123489829957202,5.546610211008977,-5.254252744708015,1.6103340647768138,-1.0906962100672801,2.3174488786834977,7.808192298428633,-5.054028353176648,8.04942738243103,-7.399241911478572,1.5881265939505307,-5.075927070982624,-0.28326993474485107,-4.466214661295899,-9.464103793380453,8.906428441430343,6.8632533779824545,-4.26480446052998,3.465588696100088,4.599087493802105,-1.0811542166786818,-0.6230729332296436,4.857717332671313,4.683611382754865,9.49136696766067,-0.11310795367280946,-2.887262845865493,-8.727018988151984,6.549693631090721,9.440945319515578,4.656352384006607,-1.89548714109317,-0.9682676256398225,-9.826488854311489,-3.5165234200497513,5.077711801570465,5.502539085897009,6.90825916227046,-4.690558132907112,7.9857312545354535,6.5679217728478045,-3.3473596695118237,-2.1887942868055195,9.798049239062006,6.168167410984556,-0.35160617118460014,4.21820945671775,-1.9469021393115256,-4.05511450527875,7.388131980828602,-3.52418195789426,-1.0385579900540742,2.0002806775206547,2.9784510965721083,-1.1630559581117872,-6.878149530236297,7.881460646636265,2.8405814155744205,4.525997236140352,-2.6162262934401905,-1.265870794005382,8.092480567219468,2.211675170257451,-1.008058592683307,3.0121471585352877,1.4580234621522439,-4.119202227189351,-5.4311270291312885,7.67576691491366,-9.623394136666318,2.0636087041572058,5.22245838869015,-1.1236606885850158,4.89378892731311,7.673917522801509,8.524921632144851,3.1489812803176447,2.5463777475848604,3.255371767809792,4.8215190999189375,0.5230960179310191,-9.107187895991133,9.401719447091821,5.284036321237709,8.228760238327936,-8.008933115890828,9.64931194599513,-3.641537419208845,6.775958225475093,-9.518145422051447,4.290192128975164,0.8187938676123032,-3.0644571931581943,8.004187979388192,6.081973700492094,5.669771953392842,-4.962808377347945,-7.182821641273989,-1.901163509296768,6.801782358957341,9.143961498872875,6.102079003406718,3.132951707519964,9.735675725174435,9.409009942243674,4.667478784115284,-6.69396137010388,-1.0185811929801218,-0.8090936382111731,6.989686813444018,3.0970222788127857,-1.9944598584503623,-2.2276772571302796,5.142068790686079,6.3480257968882245,5.447847494014418,-7.665890819393505,5.809557811722265,-7.850014735908174,-2.5579010109783953,7.158015288235905,9.266337605278224,-9.891225962256403,-5.9845656335791855,-6.23560294808204,1.5287769051262687,1.395973081286541,1.7050373425063063,-1.9633934925779024,6.364650549250258,-6.769814167965185
0.41959403310450316,2.02894472389179,-7.455400232261484,4.407297780634677,1.3207719458765437,9.712829391997449,2.1584777969685964,8.921297988400513,6.317482420951275,-9.514245802347435,-0.23800860396378176,2.453598078193511,-0.7099328531044127,-5.555820607246148,-2.72850490108469,-7.584834242083149,-0.6018001489103059,7.166803726812406,-5.89725282729866,2.4133815423523886,9.675300751608631,-0.4125255449493457,8.206688757103425,-0.9098295126080882,-4.047912753260367,-4.431736391223081,-3.646114927894706,-7.694962383299789,-2.0744623025244873,9.931720730404049,-0.7747572152497435,-6.773731476677369,-8.800055753727044,3.040625974148931,-1.625475875465585,5.381283257364633,9.427371045433649,-4.518914829047765,1.0370666727259925,-6.840847147162855,3.2734171566470653,-7.618342100708192,-5.860656932533692,1.581790170686326,7.637331765746561,-2.512844044547231,-5.401220203808568,-8.288277773338095,-9.330884850979887,-4.642124181905933,-2.4908124710751136,2.526032029919158,-0.5952965896945202,0.9904774535360279,9.183435538597163,8.067819723970175,6.797269869504806,5.1150043659809405,8.27255023099319,-0.1567106283540607,4.345177411884,-5.625951888121852,-2.7470995219991625,-8.933508462324905,-0.1229516374265831,0.08308439104622824,0.4375017048761938,-7.540107654469207,8.085978060590381,-0.5852109976431576,5.002331360868728,8.088791925783712,9.961268015404833,7.788392226989068,-6.994276367975418,7.8493171209582595,9.506318189367438,-1.9879098824746786,-6.181189604611204,-8.15448855781754,-9.835209795534624,6.763317297844431,7.946945121033035,-7.946545160459266,6.859377764207899,-8.746602876036143,7.301401306618809,5.098400276499053,9.591414989539729,-6.50499359422049,6.826607302354501,6.353268429638432,-8.816752314035877,0.015327715673872273,9.348230752453173,-3.3635371016637823,-5.437595468497692,9.773255862060795,-4.507926185659119,1.4906587588161082,9.362569225739325,8.678796610468833,-6.6931185524086185,3.735967805895393,-6.650656066975886,2.112435313668119,1.444841214852794,-6.866523055812517,6.6607622623968545,6.306336530671365,0.022863021351650525,6.521758000771431,9.58395134099229,-6.984158407462818,-0.15941876594887638,-1.9615080418484243,7.89224938263057,9.736349439016266,6.400277060864634,-9.574078336849269,0.22913969799966383,6.365573487715899,-9.672822250263462,-0.5636354272039057,9.002360760159826,9.648458858009242,-6.002263571953085,1.2376790762864585,5.883255817660491,-0.6524148372001886,3.6524008568561412,3.6640219933364104,-5.939957370579423,1.3002613723500351,-1.4698086097262122,-8.399154701018258,0.30525325146432225,8.70314476982995,4.63572900764875,2.5408718649526785,-2.971448010666739,-3.253223263355693,8.208516622680536,-6.946303539358091,5.938553033603358,-0.8562839271006697,7.826026209841897,3.754973186886634,-0.9996136797236681,8.947872671957494,1.413339853634521,-4.503143769075281,-7.62167835590909,-0.24747011325976273,-5.369603480976574,-5.213523282273735,1.342049207212983,3.20127335495029,-1.3072407214929553,-2.1333780982928987,-6.817497397412226,-1.4475552139253527,-8.533904827734403,-6.263014882838352,-7.56882332287983,-2.119989579711894,5.130032061585134,-2.7087706688552706,8.527373150887918,-7.618183911045946,5.188309164677737,-8.019749828266123,-5.278820803753301,2.6030761553790183,-2.2708967310188184,5.697446583776625,0.4435207938369281,9.620159806850598,4.25847939915106,9.232628666295547,1.729251032824033,2.5654373434709923,-6.086926629396128,0.23805876144403637,9.412397225604895,-4.217488618210899,-1.9739841625980414,4.330017965853822,6.916054852825706,-5.668383106072547,1.884459286419398,-1.9059431091872092,2.460630187256967,2.663334473218292,-6.378268573182822,1.0693881074997604,9.76880557546102,-9.649866883452873,6.980275032862691,5.309092048679297,6.275870139500117,-1.8295905236925907,6.357815707720217,-5.520970138466005,9.840412970851746,9.329547459257482,8.72542279421915,5.099134152493275,-5.704816666873337,3.4321762940013567,-7.113307287848417,-5.493500257107848,3.520827426267724,7.700346386853635,-8.630303553931295,6.098403399920964,-5.867992988056761,-4.299220733003203,-3.4348826694448737,6.50956415923053,-3.7338622113051434,3.423332330943423,4.479326371288205,-1.355924675930762,1.5160135250918967,-4.830412480400991,1.852297725106653,6.7904420151230855,-1.6902553857797207,-3.8586022424070774,-0.2600429275750451,2.3633462829717784,9.246005867307515,-6.401707051487087,8.842710354772201,-6.4788380278115545,7.750486770053559,4.493936380939252,5.126326208428512,-3.950257907034778,-5.392247132978648,3.630211248057356,2.3666853358039606,-6.659994280066952,7.4965110852111625,-7.300734677964111,2.386497508880696,4.3290831721082,-1.3007162194211204,-8.164068883946234,-9.48105635829788,-8.512388244821938,-9.330706346861643,9.962703080691112,6.791478469712418,-5.0796352893411125,-8.482151620290741,-1.7890427312599155,8.302697817993913,3.1844760299026023,-0.8946267856175782,-1.9963812645892536,8.209621291523762,-9.450779651385599,-1.7971839183365286
1.6109454391856275,1.0905952156445196,9.070311992649206,-8.522720542986109,-2.9367991904954005,-3.3599053801500918,-4.225411993966719,-4.7815096847820975,-0.17037882642006785,9.218759749479753,-2.2286898550464525,-5.166060175127969,0.7846669100276786,9.12522303055901,-6.513330011231561,4.9535945698857375,3.3859455605297093,5.110131182873211,-4.569270003248596,0.23329394752360244,3.8949321507397334,-4.6825691294933325,-1.4294659779933117,-7.605388935776052,4.191637572288955,-3.6656794634846666,5.314971005361963,-4.273185279017104,1.223690139932037,-5.240075206062373,3.852661123503246,6.927389932714351,9.076024502005737,6.531406399001147,8.957168945991675,9.161435074887752,-1.843791737973758,-8.479411047187508,7.900180200666426,-1.7114783213588722,6.382701955335456,3.415002058754837,-1.6332964095490947,9.366471788192106,7.819205825842932,4.013195001088999,9.419701842243763,6.696118572130352,8.758490402922604,-2.2958328924071925,-1.3113309785898846,-6.700287709007573,-5.791747667857969,-4.787783347095162,3.728111412420404,5.296803193172838,-3.957839958919786,8.015315178286173,4.893752842707825,3.2164953635589253,-4.357648172030533,-7.780459158973631,3.5554703726698555,6.672419391885384,8.513719357370793,2.8465588119458785,6.046101622326098,-0.21951518072529552,7.342583547352282,7.664600171314007,-1.0075130967195562,0.15516191415887315,-6.49646042623645,8.345475724978792,2.0511303404457095,1.096630786923182,3.4719737897121936,-3.1545228233017886,-7.85786753731216,-2.666761344054109,8.050357767395191,9.112237276842315,2.6102966779854624,-0.5849276186994814,7.911221533215031,-4.611569307755379,8.685830661399075,9.306151630405719,4.023163758474564,0.4242952983154762,-0.4602742090591212,0.5110183937048758,0.6319211112295946,8.421164729531032,-0.38708031881388116,-1.5225911389576887,-3.8979273108814,-3.021789495495863,3.2931560436635605,5.794470434135477,2.264537817211984,9.226783164234728,6.362651759678429,1.2462618555636298,-9.805585575718077,6.239326217432158,-2.310841631970968,8.422718829452338,-0.09194907087981719,6.5860715086250945,-0.07968162613578578,-9.236576604931198,6.497886433263812,4.17737764244751,9.33400651023171,8.386992547321368,0.7479705993398138,8.553615547653418,5.665825925231463,3.0807118596920073,3.975512524363787,-2.9638977631713086,-9.195425742385286,9.353429194854048,9.833240166302424,3.7242626077784258,2.6015864259923323,9.365860010065992,-1.5156400639420564,4.678766729600274,7.125642081591983,-8.591676772158264,5.2613574095926,4.284588118040899,6.626624528881388,3.775859518755542,5.51603725562159,4.459713203421503,7.9061365346566985,-6.223020455355521,0.15417829351100032,-1.1832827542248312,-2.513911546096841,9.517991286271066,5.832143530337369,-5.175358218417248,-0.6223897774475633,-7.506239900696652,2.1943397973275793,-8.879414504957218,7.417917642429986,-0.4044225698216213,9.439066636344513,-2.1513609874802926,8.243854670498308,8.201166700534262,2.4507371293249647,8.1268108642682,7.883733123286498,-1.3968297849746119,-7.469402753652097,0.4689965774867808,-4.113135974662773,-8.875940072528852,5.592757439846765,3.2087596129567064,6.007214231706414,7.470640485851387,8.648000545958206,-4.8692677996957645,-5.230187625966813,-7.7445803992815705,3.067993664826144,9.425299096325645,-7.897666693020103,-0.5882756596972794,9.868966213395206,6.981294935319799,4.45510271651187,-9.098275063278807,6.612727531698177,-3.17828931104725,6.190306840451424,6.422638391685364,4.135139519958954,1.4979079576161727,5.081393969015415,5.051385633249387,4.044458288248496,5.77518243108827,0.08562830409381483,7.4205433976788235,6.700873435952209,4.2088583741594405,5.502609837420668,-4.953857873902124,-0.374214899054365,-0.981894598912004,-6.833016349285163,-0.9432005086591961,-3.073837802513311,-9.133107187052001,-3.7740845657925544,0.5223670489467285,7.571666772046246,5.267796480839541,4.801302475224556,8.721344822864278,-1.9736588144914453,1.3332071360181619,-9.072680377453615,6.101115983417716,4.440323500805653,0.8233961287489162,6.540109554598914,1.3774948000033378,3.992775412491652,2.5339682089932016,7.9194988606015535,8.39718630628997,6.341672459707446,-2.918838105774562,0.45146534560990226,7.107092473278188,0.11746971108891113,4.946792389105408,8.684197321742861,2.483792793585952,-8.808072730517027,7.001365562727811,0.11432240726554577,-9.710667904301136,7.5330905720137125,-2.2273157112627735,4.4669098760021715,8.036929081361027,-9.380676068155761,-1.8704091361583473,-3.262422727553118,-7.200287741464159,-3.733997787246441,-9.641513055797912,6.223781977282314,7.331420947204791,2.551369432189116,-8.718726542677972,-4.734441904787828,3.1057198944383106,2.1032871016954715,1.4973785716257093,8.42270578477359,6.554831619691779,8.097096015408976,9.662939340803135,3.1712853170324005,-8.831329023962368,-3.576683754771597,7.426484843803426,2.1557916154766215,8.315793920390782,3.285108941820424,7.665283933357465,-7.676368220631914,5.821740870115766,4.586778695359478
7.6420262948855315,-6.926526836246401,-9.221994783263261,-8.645306278774198,-3.156490342789838,-4.095935651333137,-1.264407215492691,3.604156456598478,2.0471540792939855,-0.946594076029486,-4.381417867545757,8.703554340330397,-8.80335905106254,7.3076593493872615,2.8755786593669646,-0.2595735278887029,-0.7420094977337506,-1.8951729588963357,7.166793225002211,7.757103546603833,9.610374865638374,9.322300173153838,-2.50475175905199,-6.585046639170354,-8.071051142307622,4.67763516031403,5.09888476912134,-5.087813009358662,-2.5860956042699215,6.596127907643424,-4.56355903858414,-6.156977988436812,-6.031345152460566,-4.444416805786573,-3.2639779638814854,-9.418547492708198,-0.17525561747347496,-8.339903701102212,9.413727505162008,-1.3987125028802148,5.3393608259231025,-7.22199764858312,-7.396184672959643,-6.893576537575722,2.140523665996143,-3.1009643543832404,9.768003403865077,3.5149499630412415,1.287210566944732,5.87442472481545,3.9000256446697152,-6.205052003395005,-5.649098130738492,3.420866275110039,1.046742209897812,-2.267916711678278,2.492993194855866,0.07884118999299408,-3.586975939421807,-0.6354507719129323,3.5735898257886216,3.5995758988511364,-9.324833393533723,-1.8199970344280747,6.076624454363765,5.1903843627036,-6.980880298579091,7.416289096694216,4.275473685337605,3.8291787345245396,0.7746990090192862,8.87242146018006,-6.125473207635006,3.389473119998061,6.885162934013213,7.810079866243306,-0.5966268839895448,0.7162548916755922,-0.8408948556256757,5.825991815885773,-0.3052424837989085,3.4852903801340025,-2.9589717048777437,0.8729039638974923,-1.503809787697822,6.790261228527245,-6.857669303486016,9.587150043692034,-1.3831435675632826,-8.182848559719659,-3.1185656398996167,-2.8030528285595797,5.705645017569795,-5.368608786675148,4.891576021536672,0.638927905135555,7.0748274754205225,-1.517921500988904,7.7173775679848555,-5.7143398388635935,-9.414020708680372,-5.200394473770337,-0.21175406538038535,-6.307348035855267,4.638238020706568,1.4351406535465898,5.608100003464228,-2.054742290620016,9.695596928335387,-6.846842820373369,-2.6072755969241883,-6.207469661527162,-8.40195966334578,9.710293704310478,2.242664135214996,1.5014199282174443,2.8467347466638175,7.982548416597899,-4.759393698076641,2.934400733313696,-5.698093337879101,-7.944771008515704,-4.77809033602787,-7.168191131132195,0.3702568080264357,-3.7382012521731323,6.434572198334793,7.271444791527294,9.945014187114879,9.872957535628107,9.368316844240539,-6.84170653070413,-5.215434096315612,-7.375980797959864,-5.9313273350706535,-7.089598576914286,1.3550616416443966,-1.6518100865829615,-9.126542162947485,2.909929335095263,6.990488127162411,5.851448271426737,6.3279559045849165,8.567444412196686,4.704596300787573,-3.1795637379949873,-7.588711845085935,6.301035208378202,6.184829662895684,-5.561499582554393,-8.544446900974673,-6.675875579559246,-3.535639778163641,7.478595278454092,-4.027189240947232,7.091752056222992,0.885560977164118,6.792541501927317,3.981816113905776,0.15342036450033128,-8.362491701090864,8.261941870314114,-9.669842595234655,5.25281486938674,1.5121127464479718,1.6753981949917358,2.5882350818351894,2.6030150075911958,-8.692697644241631,-7.044618694548484,0.9151060529604784,-6.336818474288075,-6.485974480612855,-5.711798632317743,6.9847741159775865,4.062995759253998,5.751779574737602,-2.9631908293744833,-4.112037922202884,3.845796920569747,-9.120526653011552,-3.119567446491069,4.999796323679549,-6.766609718091385,-9.812646771129872,-9.031691755117036,-9.897673306906409,-1.2957556151602532,-6.084615542587073,8.509912699985101,1.7501889655607048,1.5656007366486513,-3.5634149642771717,8.854687300830758,-9.306124138933622,-1.9120727332936314,7.175613297072765,7.06997816687849,3.390739905148159,-5.740470885098546,-6.305734747640521,-6.041848713417019,-4.902483167569959,-5.3928361190131415,0.7672013690005455,3.6423682543650937,-2.482527463696017,9.928006328050209,0.600922875958527,7.73238851175571,-0.8793255292139153,5.038333344516401,7.443070531698163,8.66969279223652,8.898992908593268,9.030989062062037,1.2835825410765151,-5.360105014483388,1.2980443098023067,6.403927323645033,-3.425295895210314,8.153897585625314,7.693760277656837,3.9285348364721426,5.351358728763036,4.208657726909886,-8.946024773591521,-2.036994760543072,0.07282183401270274,-7.305919432055939,8.532692765856444,-7.783410906201112,9.85501416552762,-4.410366985076245,3.1323282775284493,6.3471692109522655,9.25603760359052,-2.175703425005697,-7.323067948655499,-1.3227791831538385,-4.539897491623694,9.800928811961562,-3.2205486838248367,8.511598595437563,-3.3940917354980815,-5.64650188164717,-4.056921187795941,-3.547025841070898,-4.163130380853813,1.3984871776363774,2.7721113991134905,-3.6105315854247166,2.912116140933485,3.3285162552212286,9.064258793226614,-2.521523447031946,-4.91924857008335,2.280747337185092,4.595990692829902,-8.188823045555672,-6.829125726178197,2.7222211967069585,9.118607714298545,-0.31453298736836377,7.281594559605807
-7.35085602474356,-7.137959219321735,2.9664448985690064,-9.297403262854424,-1.021417373604703,0.02514137311861142,-2.7057922793514244,4.010396613220716,3.3603167744285054,3.5723812024455612,1.8472055458841723,5.287502528679961,6.987293850404469,2.4587254155058074,-1.3095523480938378,7.885692825280971,0.624069915003016,5.206650146899293,3.7064381270408093,-9.383609035657066,8.95475715361352,-7.050566944743747,5.616350322380889,1.4213328382769568,9.260496244943148,3.148641215175837,-7.943693974772201,-3.706744884813354,6.087077799735162,5.808971127610025,-1.4914861254078124,-6.6726742142449265,7.259465277948588,7.381315586557303,7.296483802031052,-0.31969283503586504,-2.9337079439750013,7.816674752746443,2.087878119588537,-0.28575767115830475,9.993344101792893,-3.7394521492164756,-7.334473859614589,-0.22949867034706806,-6.4815461022113166,-9.461187397085986,2.3885475203707482,9.640879790281593,-7.908114293242652,-3.7431301858587545,-9.090353778890886,3.287581621506899,-5.665253622096353,5.135702657401267,-9.948165492515843,2.3339817087887234,1.0365989957278656,-5.777068524658299,9.250969923233498,-1.6372022959385593,9.036627352302002,3.7875861050894244,9.018356119636497,-6.7495205340815,-3.0851171548973624,9.852169787800202,5.587093963921217,5.2789360400689,-2.2540704472686266,-2.57407841243775,1.676668550998519,-3.735778835106538,4.979693914683388,-6.505954536861138,0.5922445463840109,0.8634193678363609,-4.938671678557441,-0.8210138068827418,6.918111366929577,9.762874446733065,5.210284586127363,-1.383582042072339,-0.4135917250764152,-9.562376797411122,-9.398868769348235,-4.806196918520294,2.1281226283623034,5.271600947450666,7.221420353126707,4.171871163029396,-6.481600857814633,5.423571359410842,-8.931667013994309,0.7020076347863076,-9.52759215829447,1.8292239260368461,-8.505910867496844,-2.5777138374167485,8.110314111835999,0.698625613648834,-7.391263738597111,-8.218064081367471,-5.5252115656587995,-2.6407381465988204,5.445902231423719,9.149427781181487,-3.650174626162999,-8.435216033558847,0.11366717853508228,3.6904248401321555,7.462928863845252,9.576210934134911,4.352269148123558,7.503751580996632,-2.683750327739527,0.8030398467978906,6.5286627035668205,-0.6747833445086182,7.9537703819422845,-3.753036114268666,8.342132896129506,6.5221210262313996,7.7055355272815,4.983790326130943,7.914140673545421,6.911729280153408,-8.775425670649064,9.577010149268665,6.337014228218547,-6.9583252003408465,-1.894485026691582,7.91610664844195,-3.218787015858835,2.6268248979407307,1.357772722740385,6.573271683844564,9.436137218352577,-8.335756555652592,8.06361308204577,0.023766784584687662,6.038520120625247,4.898204086399727,8.366172914229958,-6.508605374446818,0.7691958515118951,-9.163046446683133,-6.723234755072191,8.637783486569457,9.493402333238043,7.21378768219007,7.90498741358335,9.405649845234306,7.554961966946463,7.763735743748596,-3.0549513446647225,3.99847562908754,8.100086757898112,-4.302990791220942,-7.566499956011923,-6.346026691936895,8.396248973455819,-2.083609501583979,3.3175871653761946,-3.7575150195567053,-2.9686068350857533,0.6647387994351182,-6.98342699172699,-1.244107346988313,0.6760102404047608,6.902521166363984,-5.041945149636782,1.4194462879751235,-2.053959455049691,-9.330181188456848,0.31680060991168446,4.658649113135395,7.099262081168075,-3.7911633334242896,5.701156613854341,-2.766121778526842,-0.5969586406789447,6.024963693103606,0.5667726941122637,5.873054053117162,-9.225177719797031,-0.6127428192756259,3.321676093137526,-2.9624133105737407,7.942468262830308,-3.532472041639338,6.691686995394205,7.673356293220641,-2.406677913103671,0.44339924966325983,-7.433571999752608,-4.094034594887908,9.061016320982553,6.505007458687895,-9.3910348684306,5.310376756672982,-1.3242671095212852,-0.6595237908748705,-0.7377949648001518,9.248186855221219,9.68993207046136,9.69402537750338,9.908288567097973,-5.306869588400032,2.9462024095649553,1.1646365242413415,-6.6798565752445525,3.912425815571736,0.5595202451596544,6.485475882515001,-2.690365875941889,-1.5535507056104052,-7.358879553892951,4.378039269731733,-6.92099139754429,-4.03464490190358,5.959653683453737,-6.5139627358417,-4.876062144387204,-0.6346936695824408,3.787286198496715,6.217094739750877,-4.730126779337166,8.080075651475642,3.6620591375426104,7.627819161962524,-2.8914480661726696,6.539543371307531,5.521192269428526,7.9798899394481815,-2.2659309852104124,-4.298119284295515,-7.570695799944633,8.430893110846055,2.2707347191826006,6.54958846185065,-9.438825875423335,4.787714972989657,5.300179086564442,6.90063916346103,5.137868398338698,9.084818638062414,-6.789323905050541,5.593224442703402,1.7636270026625442,8.547565033722142,9.202057069144782,-2.6158451126562987,8.16974039035144,3.4400050496686663,2.925885012267603,-4.5891820585845915,7.095296466348136,6.171804308646227,-9.513855954118814,-5.700552764672109,-8.511365234720648,6.1176223885738406,3.9752876820809937,9.328709730991111,-6.967235634083187
9.501802644235013,-6.179147785704707,-7.500808545622482,7.918607647152717,7.162410123480015,-1.0153270583991483,-7.6957342257707095,6.702516372411899,4.352099237780006,-7.316489166876481,-1.5309785237165707,-2.268640890483697,3.0539278276053627,2.2718333237622046,5.6162158092920365,8.99157071323263,-2.531072953082509,-1.4435583471881825,-8.166958056795933,7.067099983624263,9.010930234379689,-5.588899799394241,0.9951041756361946,-2.6311731776485443,7.14822851286668,-1.654072462749483,4.670327614170953,0.1728691008971288,3.1690209136800807,9.322100603148783,9.16702994695509,-0.010986609670560199,-5.838076746610362,-6.92689166170618,6.890898221366904,6.764174897041041,-6.1563555092613225,5.988325760276936,-6.6528814636881055,5.6717643436022485,5.827084966208582,-1.2715594664282008,1.347509328781498,-9.600189217574187,3.2581725149136362,2.7193782492838228,-1.0423534780565173,3.4110459660334915,8.205584810127899,9.864126686711263,6.253722644215931,9.067379265354628,5.531238941168886,8.9533723963549,-5.341331487951278,8.958203121497206,-3.02794479088978,-8.657744101426122,-0.9436648932262759,7.663656635952524,-2.243900621621534,7.940062994403416,9.848271471231103,-9.720384733037681,7.168154663330913,8.822600886290807,-9.398590729379961,3.141827183923958,-2.204145088615821,3.4047854152956267,-6.602727521517248,9.390542279618261,-6.737032326745048,-8.685960569122189,-5.061797870023774,-0.6954612947613237,6.900917972794872,-2.568813000568212,9.434708998653093,6.44111559053912,-3.0410567547872693,9.74060894087797,-5.344937585529066,-2.634145899092541,-4.705746039665817,-0.5138146031387638,3.984768458958227,7.674648552334123,0.8538075366975011,-6.521189624159418,2.7853705982675434,1.3389815899008326,-0.4726492191652163,-9.575474014402262,0.6571039369058203,9.60064511517707,8.768084991083118,9.092682680688972,6.511282548889952,2.7393567953868736,-8.091640988278385,1.6773162019157617,-4.6606773317207155,-8.748132714309788,6.8401188543591385,4.933005039660809,0.10097601041019466,4.484996503988604,-2.530017296119733,-1.0428892104410807,8.330730678766468,3.3233377536901063,9.560200734502038,-5.798201401625985,-5.292887806688606,4.777562558595808,-4.276157735453907,-8.666358413796583,6.4825119237791995,-9.24046660895777,-9.537902941536725,0.5266030518956528,2.3425574852604893,9.767808037907557,7.0957277324522625,4.421634909392365,-6.030485970721571,-9.14447985548287,6.687874203933623,-7.068150519932439,3.025652552581611,-6.059916682324464,-5.11302250199207,-1.966730089540583,1.00761021934726,-8.214120265876446,6.078920441722616,6.076855363563192,1.4940102461671998,-4.9282253822923225,8.030809431359183,-3.388609390322715,-9.327960707940468,6.209046689418499,7.580699596136386,7.66044289875881,8.52091829908779,1.4038401030679943,4.513868744251617,-4.5316791367192035,9.156891139723871,-3.574337893215689,-9.119852607533403,9.017708085480196,-6.0982080375495755,-7.890671205557254,-8.74261791187992,9.714957510206997,-2.6608467885291924,1.3575808171010841,4.480112992180578,2.3614317676727765,4.514443554612256,6.262568343752148,-3.452324894913094,8.636558473265445,-2.327932144422215,8.604928597099425,5.488000036743907,8.315195800079561,1.2712130999811544,9.622879028069308,0.9378304900667178,9.201392505203403,-7.68928439887841,-7.161456219292431,-2.2086362867571347,3.4017113664794185,6.068313262742195,0.5707588170333207,-9.300937383158459,-4.0293383697283875,-2.80287222717266,-1.7853959301492126,9.250667099723277,-8.53228201778639,-0.35005442680144805,6.3499766402735105,-2.38020854850469,-5.640932279243934,-9.041867220768783,-7.998224393407498,-1.4258576424984764,-5.875739789275098,9.109948978737407,-4.091623806961214,-7.015244256818931,1.2155222043479514,8.164495278352753,6.929401692038943,-3.393536519608433,8.26385612676085,-3.516331418685409,2.389430163987514,3.2160500178042373,2.719745707733649,9.62245063011251,-3.962762417978701,1.1528101514601374,-3.3295597652230873,-4.634514960549911,0.8969735709580082,-4.550698303035166,7.326636852377494,0.381026085103767,9.543413593578435,-9.942328358993503,-8.98938921314311,1.2748413102433815,0.5387361636300518,7.167044741070981,-8.263258272963869,4.823304848813818,-5.892503006533974,-1.5212650131133405,8.11417655271876,8.00841338569539,-5.5457239044810684,3.8006596460439765,-9.76782793010615,3.0474540255740012,7.53823947853957,2.611335405327588,-1.2843849060393417,4.151695390962298,-6.626899011566801,2.243070049042825,7.64620797589035,6.106784599425954,1.4166087829985772,-1.9849090128154427,5.63900635262034,7.599725501504933,3.907435639469094,7.65701230147145,1.8483185720525577,9.33549423664615,-6.881875566117759,-3.0279342472111104,-6.378914072946769,-0.28934922217972703,-0.9450423978210063,7.662492969886736,8.913955350012667,9.880922279212498,-7.726557750356041,4.868472881410268,2.486898194317888,6.222018138317653,-5.175437458707783,-1.330788792333216,-1.9394984012824938,0.3810551708078549,0.22666209654202873,9.350162320685712
0.16593689637533293,-9.248705099611733,7.353723880067418,-8.224497426793715,-9.524272795742984,6.5008706181594125,-7.756069040153982,-4.082304205152704,-2.096713380699484,5.00419302285591,2.2197705322960997,1.3037787453227168,6.611904483929983,-1.4750920223342572,-2.3880433545280555,-9.948548307474688,6.096929590096071,-5.909104634343156,-2.660137472127265,-6.908835062349411,8.324361498784187,-6.69865020621122,5.524059242643973,6.595251092037344,2.413912376562505,-5.677757762980185,-3.251354362623718,-2.4227004782377497,8.510826247374952,2.044416336424163,-2.7073488257083973,7.951987001099615,0.7171231246444142,-2.73787688016918,-0.19254557077143497,8.122875115289142,5.049983609376079,4.130968422349481,6.878327690732794,-7.584695752327538,-0.0026709538054232596,-3.3998939310119596,-8.530329659425227,-4.4921718995619715,-0.26284710893435914,2.980247298468397,8.8697544275517,2.667822138124468,-1.241571445713822,1.4178111731744791,-1.082050326050005,-3.45858057054349,2.2956724898090637,-7.023200315607741,-0.1985155853998548,2.8985116810924443,-0.9482495946625998,-3.457319116440968,5.484274688896713,3.384435393407898,8.902752802375208,1.2859007574043684,7.163687802377393,-1.0218929189723693,5.731809502190266,-4.326272498720131,-4.154789066713342,2.659370987975677,-9.984064261758977,-6.724899605782696,-1.8842129040852242,9.821585494478661,6.230584031651942,7.169540952090434,-9.110954499664896,5.248250682262571,-7.9424216884431384,5.8661826832289945,8.377761514331375,-4.941346225192708,3.0275873101111146,-4.0309672948646,4.800196624629736,-3.7461721031095174,-7.1778385567063845,1.6448288695814313,-7.9366938920514505,-8.582942404666237,5.218243881860605,-5.002223446496446,-3.5050410784150814,-6.221069055710302,-0.7046855503835328,3.58509866724853,8.066076659972852,-5.137736508588041,-8.880306765706553,-4.463867545242626,-0.37801014099981467,-2.0979459204397433,-7.326824811229931,-0.21299427205036506,-5.788225135985255,7.380823533734748,-2.297201984462535,-0.46696553983647826,-6.768159922329508,-8.358798764447826,-7.308099985492373,5.511790820223096,4.226837056756475,-9.149296584569113,0.4065839496729166,-3.7831513484767756,-2.485159212627349,8.1663286623848,-7.06614540635263,9.455447440494977,1.6123321237904817,-4.582293610143739,-4.0943610079973665,1.7827138355446603,1.6891521574629134,-1.460044060136559,8.916357055477626,-9.814044027653688,1.8243492581250784,1.8514122210129638,-5.497547478654688,-5.058891982498282,3.1261589499114253,-3.77189162337233,1.867007746078584,1.2223017708773172,-2.2006692397299568,-7.825913231710403,-0.2174255582218585,8.496994628483717,-9.683175580856567,-2.05379508937515,4.279920325152043,-5.248493710687079,-8.564863323922957,-4.853897332957179,6.8266896264697525,-3.965465878253079,0.7726939525921968,6.721281724414451,-5.365856807250083,0.6773936685842066,4.23733999520252,9.751219948972228,0.1445767701658362,7.5347595746651574,-0.64018020391992,9.979483385701334,-6.0266547897634375,-0.7600199405807135,6.29288787786768,6.421870722029015,-0.7209061220562827,-3.5959989513154254,-6.165608432827848,-5.181329571434597,1.290287482657983,-1.535597711605144,-8.559825768824492,-4.430615996723226,5.8220343260241885,-9.504771146992521,-1.3992890825595068,-8.88815666909809,1.0153133781856096,-2.0450626429103824,9.285910523491562,2.3301154684533447,-8.619623021383694,-1.0641552495175346,-2.349091710206569,2.7442355913810825,6.848392278882464,7.889493522223019,-4.559133846255249,1.5780679454373987,4.400082067377169,4.43227742275483,8.26942720842979,-9.195832574789861,6.709580451829207,-2.0895135362384103,4.099023334537617,1.21013471195723,-5.943714020520988,1.5039143227037952,-4.491376723317524,5.24043839379448,-0.6322735590684956,-1.2281105421059912,-6.566045238688848,-6.3412782903815605,8.829364344263475,-6.604577355448789,3.003902750393378,2.6656751603027136,3.7537144705054293,2.873408043466301,-3.5346862263429664,2.4293573541448006,8.363035197142839,-0.8305356399428163,-2.962082880054171,5.915186381961118,9.867059766012382,-1.355996673609638,8.938134432718698,6.39828460384717,-4.876765667728598,3.46999554899548,8.16938212924479,-4.468612696505914,-1.9442899473673103,9.030824287116559,3.7200151250683415,2.8951268165860564,2.3249230969910255,-0.3632593560546018,-1.995413457070375,7.828972666688778,8.084454763398316,-6.9029742146869,1.978981392446741,-6.1031923993915065,7.4404246408661106,8.157627090533245,-1.8470565812444533,-4.647735806459777,-5.92811268858734,-4.2569337398479785,4.97078576861296,3.521250020515377,-5.917676159889049,-6.489111319023849,-3.724820261512604,-2.918542450792985,7.053740972977945,-2.241187947893044,-5.663061179693633,4.0307843468266835,4.231731926745725,2.0959467054633296,6.919742850422717,0.06845036108031533,0.6022883357084856,-4.149312170804785,-0.041719570983199894,-3.739018635714787,8.731346597849367,5.630879018689633,5.698548288894763,9.757604576442182,-9.696728715824374,-4.867455221917837,6.518755750597196,8.145661154259333,-8.237703295247844
-2.6396579466402437,-8.89431917631286,9.392940793664984,3.5130535905147617,-1.6538878935525274,8.888497188977894,-9.72527593597431,-5.808439082739685,8.753698746587304,-2.116573539544708,5.008805229340209,1.6610510615985643,9.443985093674936,-6.13866980937021,7.111087040551062,6.621653018050976,-9.402698256881699,-9.758183258823173,-7.390163655992918,4.328386870538743,6.0775326690341895,-2.3464645409054112,-7.455878104980773,-5.87873294698247,8.769067443188625,-5.366729680847274,4.859660090636849,7.536811803733062,-7.170504317420976,-0.5478446545660831,6.452802753497333,-0.7155649177350698,-0.6258774430773096,1.9446436573292405,-0.3245858026442727,1.3962103620099757,7.670113557647317,6.663197687993039,-8.415775968371111,3.168502086113385,8.537945925786284,-1.200917943743165,-6.914148751894068,6.331962202475212,-6.706986419929342,-2.0649464377954008,4.175868096257307,6.255495297252626,-7.9426873461224385,1.5363184331911688,-7.34891898048145,-7.933338675783514,3.595575467806837,6.162008029865526,-8.078299561146405,-6.615010344696114,2.890979619072093,7.863504990791233,-7.150616340394329,6.70573341394967,0.14114416198700527,-9.063323590089636,-5.038236914887044,-0.8994369398011246,4.785789656105763,-3.1439250944583663,-3.972973461595906,5.392544840169947,-4.05677433679033,-6.475892573399513,-4.206036400148614,-4.003689236705806,-6.143400001884955,-9.47352515239163,3.0454321300047678,3.603591673717908,-7.9816577870240515,4.633177474511224,-2.9245987397504125,7.96130094287986,3.6432962792049888,5.91004913693736,-9.429220738889962,4.4109710383212395,-4.637063080089246,-0.9987350391500098,-4.159863178939787,1.2888714838546549,3.4247672835280927,-9.913269685587025,-9.70769169196094,-4.405775481038436,6.1966266150812865,9.99897301258274,9.569913959651004,-2.5559110805813834,0.18719202554939995,-6.069692736134863,2.875214149841621,-4.653719893991849,2.0159550240807746,-8.502959673405256,7.831688616253108,-0.4971770109201509,-0.7144230520668732,7.303565773528536,7.697002595067819,4.230773815713024,7.406282385142355,-5.64829591676632,-1.7482181765428033,7.927822205328506,-8.4294278995333,0.44305585613416165,3.2377417980238636,-1.8893492001598218,-5.036645528037762,8.605556933953535,6.88698558909506,-8.961518448038836,5.3304834007234945,-6.002407964499845,-3.4678316323006553,4.914905791292037,-3.7402173843986812,8.113396376159857,5.843143990496258,-2.1946584255422925,-7.961405543168006,-7.081922785759412,9.712107217580314,3.9146759338566612,9.106006256763324,-2.4835195247494277,-3.6258822049776036,6.44535878505252,0.24738693993795646,-2.133351116474172,-9.497499814170604,5.012059428606818,3.1140520327494414,-6.3513161163996426,-5.937069928240905,-9.085077755852057,-6.659690000232981,-0.30434984834841816,6.561801229323417,0.2674953045649682,-4.308737853239837,-7.187861745598031,-5.064078404267908,3.55379218326038,6.416636467177041,6.366542739453208,-3.2283098717718994,-2.465748124664544,8.018524176789475,-3.8535160986420984,-0.171118416487672,0.35327051535952814,2.0266938439084647,1.5302836033758886,-2.91585928416986,5.6124451503963435,-6.252398558257177,6.425531414172255,-3.761932925536363,-5.194687955595606,-9.846263950532501,2.0739560996126425,-5.42917217706814,3.644522255033868,7.3845641220454015,1.7657602175054476,-5.190624911375324,8.662170910363749,-2.7228326750247067,-8.820243169228274,6.29626109352734,0.0506432853903922,9.06843076447098,8.901109457384079,5.883870540320119,9.650540532237155,5.203093766604063,7.989256068059377,-7.334938029386996,-8.463392758573525,-3.601237390479006,0.7733175799483654,7.063412612004758,9.19687442031525,1.0834712371103006,-0.20101705768055217,-8.839427293641783,-3.776317433410033,2.0803824581256767,-2.3324089376278274,3.0913248486342937,-5.746384207685506,8.947520010492932,-1.8134261168207026,6.896371523522238,4.13343046295771,3.5468182777127826,-2.5846392867567376,4.836875385518344,-2.737734434235031,-6.249683428496535,8.244806266446618,-7.387988086362492,-2.270632246291093,0.26788168938208623,0.8011043915902974,1.8157576600488492,-4.6556497857224945,-0.49987124800150795,6.965270157148565,2.810796160685791,6.677842429241339,-2.3541577551136426,-7.674556670428895,1.6528482802536577,-6.382874632676546,-7.332699148969344,-7.949337143432756,-9.751008249550713,2.084302582706254,-2.521934167642935,1.1960903038895312,7.400495840575447,6.631252699410219,7.65453279865603,9.72227531750212,-6.338701853119716,3.6685341617199567,-6.199251688020741,-7.531645526364392,-3.162765981808593,-2.11406752277485,4.655941948273373,2.2034116119708274,5.226899823889652,5.683933775045528,1.0741513314262685,4.882965670410971,2.265977004961176,5.518159494471336,0.8244557951874192,3.234659908726109,-1.9273533595610974,8.246327997200364,-6.799458799249242,-1.361671535806087,2.519343696495115,1.612722222474023,9.86674136377646,-5.668033572792923,-4.482165759760857,-1.2306050999573275,8.206483315242842,0.7676064648781087,-1.1233319069679104,-2.238800835035346,5.285319997829543
