-8.362987787311612,-9.35119913627437,5.881206065577022,6.390746609802904,3.6464947739767855,-3.106231845345002,-8.840982273041742,0.2422366013407148,-1.0812421164659605,-2.392364397220539,-9.02922311763983,-9.878091834557544,-6.776273288115478,6.174465800493672,-0.9242990851964371,7.858013839494343,7.790546882730743,3.8781986620762225,-2.1671573940582256,7.429323453590037,9.604650411256266,-1.924892041987198,8.968888573914274,4.264222507048025,-4.892254510680986,-1.548216108921765,-1.3629543759604483,8.354495062623368,4.521127813452462,4.5053613442810585,-7.0716957716250475,-5.86091673659008,-9.823426808991034,-4.143721483942592,6.148298322245475,-3.737832881101867,1.222155661236868,7.451879275982601,-2.204418598331524,-0.24691571693505265,-4.633551946858882,8.215145020066387,7.6118697675402895,-2.1041991896655996,-0.10009980010204587,9.390417659814705,2.8234682895709833,3.9345927310493463,-6.802186857151948,-3.2687796188422222,-9.630098954271158,-1.5929429098012706,7.921094344367541,-9.404843973413188,2.6433698768697753,-9.558471578339237,-4.230319836528122,4.511747756260645,-1.3434775049507255,4.3329272993353225,-5.329370195817551,-3.499615137945679,-3.58039835669429,7.282197920717733,0.040415414439195274,7.948269286433308,4.651207052435144,2.089299387166965,7.4311694394197065,-9.531033647976228,2.566439546298157,6.836806420211276,-0.8968558583114237,-4.057634735200304,5.60847427899361,7.5909991456548465,6.22022201144668,-0.8741317732329816,1.0897576635927964,-8.487121149612324,-1.443014572767293,5.563723900033164,9.55899670677853,0.018973071258892915,1.1805325498753079,1.8132408798610047,3.745010311151167,3.249148541052361,2.508929154106195,-2.554330029839207,2.984225154559567,6.815287342592136,-7.664315555300247,-1.4251409957840118,2.633606785611697,-2.1272900980241305,8.78724054326706,3.019594929641805,2.2865907688012506,7.121199689079099,-9.420646427250201,3.7395838889180584,-2.366853843847818,5.770796568247043,-0.14279426838980247,-1.2687929596385015,3.624431533626163,-2.535943726806262,-9.042273819062297,6.349258605440875,-6.312799851423173,4.423352841834734,-9.933777047447467,-6.776576086224768,3.2286581997005315,3.546863155009373,5.586957974015398,-6.193028852977101,3.1900943685601426,6.428085410696541,1.1000496523032768,5.729966514552769,1.5246063432481165,-0.866834209755565,-3.021986539049615,6.0026899485167275,1.4625249778640135,7.154991813370991,1.3108069142703203,9.875227671699186,1.033614588042098,5.08083979997137,-2.8498351624182456,-0.008920998335486097,1.4753281856484228,5.067369859872407,-9.054282111409362,-4.9056874886066755,-7.983975818229263,-0.029985767827896526,-5.837232353784147,-0.7179984650960964,-5.959919653096923,7.577985809700479,5.257191918545864,9.875432364082108,4.2847861409300565,-0.7148671783558094,-6.704487296478149,2.709335610914295,0.1906456734219505,-8.834189397486028,-4.494717795316397,-7.39160055951851,-0.45920277560128,-5.529045636610978,3.4861925924788784,-6.953207582911428,-1.159627588576338,-5.226011514716387,-2.3105728568355746,1.8334783174833431,8.656470338785217,4.650431048341648,-5.0043543397486605,7.9671124754150675,1.7298680525654637,0.285670155760687,0.3940102841148232,9.40387399206635,-3.0690897219323636,5.454341923246046,-2.2819296115583105,-6.343447869666144,-1.0058245511123571,-9.526057636529362,9.624231486923586,5.3579693518214295,-1.1488772744965874,-3.90962575988039,6.092032462272755,4.6178208927230715,6.261451610705424,-9.790238427392687,6.793221170687126,2.6048908958108266,6.183377420054011,0.3289800794849813,4.127275088751318,2.1445394799871336,8.26993503227455,-4.001709809669114,-2.751694618640903,3.2613884315112966,3.0498364239180393,2.8413250131059584,1.5745854319122972,9.934013431502066,6.907632120119549,7.301275161746783,-1.7885484122449657,4.730608687451658,9.585109663523019,1.9044491423103889,0.07611448790412823,-4.066603693078791,2.928690314886627,2.117869066306077,7.469780918919705,-5.486910661094108,2.2409481983442836,2.799478081221036,1.9199718834718007,6.5783005124681075,0.474340834099904,5.976586423513255,4.901918254322906,-3.103944125609568,-6.496260241476848,5.171591745688588,-7.8224444338301655,-0.9732622208638109,0.37047937362784467,0.503162805363603,5.6257777837190055,-9.568097008743297,4.524210366998263,9.611651657268919,3.931010103936887,0.4427737471053601,-2.7636535100731776,4.115226980606586,-4.200890672710482,-1.933048684245425,-2.9650864586876304,-0.781117013120737,-9.457955164650516,-3.909902693685591,6.150650192546419,-0.6494034312305335,-4.691653413481972,8.321334578455033,-5.2622587467941315,4.427217109524134,2.6359113673816186,2.007062701118217,-8.1888190386579,2.417627679894572,0.935781100237727,5.05294271282123,4.326465176722213,-2.4363552208999923,7.457098732734407,9.271383194316918,4.620232504299151,5.804291926313183,9.73710609272695,-0.6699099005840781,4.596395636639142,4.44512742411209,-3.704571488189795,-2.663076964401941,0.7998493359017527,9.814324232050765,4.705949554042655
2.603575452165549,4.243073881566527,0.016121451590799696,9.35065088846639,2.143037070520118,-7.218473654765072,4.666207554250525,-6.180082682421125,-3.072950901820774,4.680038455403709,7.955881417962496,0.41837340285474856,5.207079250373416,8.485490921957613,-2.6183911999528933,4.360462948984138,8.824606390107549,8.062477067006096,1.9219164054359104,1.4672672856594895,0.2335937418455316,4.831394791304163,-4.347668161873752,9.963206456485347,7.2829873907793115,8.739430004457319,6.198622616217195,9.368493022219482,-6.404079139108579,-7.096181830344808,7.433336601881633,-6.1451027221827985,9.500457401750072,9.252899731457514,1.1701276325425276,5.848281919342838,-7.236828901558653,1.6284709245036646,2.9496679277675875,-2.3553236423661748,-6.2780991772043055,-6.700453140577215,-6.210957959771489,9.45264771965866,1.0397322428671343,-4.078857303612425,-7.3479729695038,-8.73363130516158,-3.135113851440627,-4.268122453205523,8.135021603519716,9.030251088773284,-2.670920860312994,7.215023826473077,-2.2475800805165598,1.3677665146675184,5.670356764076933,-6.859207601848878,8.290151250713919,0.47882829302509755,9.794027848704538,0.31494377460746636,4.109976306657379,-5.369990336994773,2.407036253886548,6.6976917167249965,-0.8717983198374925,-0.7094468685822979,6.446138920907918,9.21475480642544,6.034748813803173,5.105485088238433,2.8201045930900444,-2.4059634056084374,4.256971502787056,-5.551682682459446,1.853693270269348,-0.8321676087945945,7.082748137542123,5.763045291424335,-5.438823630015847,-9.071301545249108,9.97909710852459,9.522541833031017,5.056881392165817,-5.6448397365253555,3.368694670864406,6.798129997281546,5.494019153654081,3.53740431042956,6.846295536352926,0.4204961083607017,1.978910256840826,2.3652457838753653,9.324439516947022,8.562716146920398,5.907006695529677,-7.1750315514760565,-5.112929075497153,-2.707291998081624,-6.378121004170999,-4.193596287404971,-8.143563957080449,-2.617464662922047,0.20987116181439003,7.529804698304092,-7.8461531904304165,3.3250265396325096,-2.165532767366944,0.9417396969882885,9.265764698243043,-3.530402761521641,3.6685790094309363,-9.888554809530469,3.707582459556937,3.5839830094146574,7.544085105905829,4.371520173772535,-8.804121451639295,8.75120064137294,2.728508713015933,-3.697088756908099,8.429922596155329,-8.19941590181401,-3.2590613260872487,-8.404635276117672,6.600959476040617,0.0022907219769905396,4.55299066410192,-2.2888344705820844,-3.4840699346339132,-2.1329845941666137,-2.0023381920472634,0.6705410567625947,-1.185862872020032,6.00312052518494,-7.823311040817011,7.078792961295658,-7.493535457852961,5.0620898785231425,8.952056771152385,2.724500894058071,-8.623148051369892,-1.364634168895174,2.4790098253753583,-0.7779813794093027,2.80150025292,-3.039630360230512,-0.15096565819695762,5.958493123385316,4.069739866910808,8.777204134761785,5.2242141287619885,-0.7815221683512754,-7.652320825503943,-9.623220331665232,4.80776335997178,-8.461631850944332,-4.183849090896851,5.332223418712297,6.461594465461474,9.294185016222697,6.949135203851216,8.054728790596418,-1.6620043718766926,0.9467455452907787,-6.446562838304774,3.612474082661496,2.7377536366309796,-4.753272004966509,4.056968206269216,-7.473860957363701,0.49310853867917714,3.6949447106435196,-6.569186203640842,-4.058078481842998,2.664357625507339,-2.8094435217268328,8.314205483981393,-2.2924813694779456,-5.926741115732295,7.1237113667565595,-2.016848383520388,9.674868580598282,1.1000039232894687,-4.783959353209682,4.202124091503187,4.934786419294836,-7.900327164363757,-7.999246099208553,-0.6233158868820041,1.6709946573077357,-8.263191999541458,7.81872213435653,0.3721308261501619,-7.903653465374054,8.089323096686611,2.936498040147319,-5.896019688178289,7.895021614726753,-4.563042481508294,9.420559235471783,5.244313277270847,-5.074846273517927,-3.0234357527474103,2.16796864959432,-0.5341452033512453,-5.862462919840583,-5.8210998534234175,-8.986683381812032,9.348023334138059,-6.617357145047393,9.096578986956388,5.320983871452646,0.3799802468758293,5.485301931579636,3.929692690932994,-2.226260852135047,8.845543084347065,-0.5315551029122432,-7.016765066635032,-1.952304296738876,-8.067095465284606,-8.215536948925894,4.861051135437291,0.27142063080117396,1.529365798957956,6.224186485483539,2.8703306535198063,-3.468661811395882,-6.197861808928117,1.0774159782213595,-1.0143932527603543,4.848220133616593,8.528365337819064,4.127398227068708,6.669847223648826,-4.434660967347441,6.387709453443936,-1.948664365774468,-2.969171090718133,2.2066213835848254,3.5155309493684372,-9.17656152944877,1.159507977647042,-4.188120611531317,-4.486041454187606,-4.431260607168933,4.268362250203188,4.484495348032577,-0.7087749007978821,-2.402493251188374,-5.492016470367252,3.736795090338802,-3.422278260319576,7.586299208744421,5.713795745901157,0.1123797130712978,1.552842729036179,-7.490470650780654,-5.990116530743506,8.543279004533405,2.2426417637070957,-6.104784398650636,0.7079226908328655
-1.0256228314845768,2.984861805297056,7.621580612614424,-7.8950699450991175,-8.2347832951971,5.4189726811832,6.756108799186984,1.0887043283506235,-5.70041169798346,6.707102147834085,-9.049281973045444,-1.52714164844214,5.74788722888279,-2.1238812006689187,4.187938928079854,2.6366135180853156,7.8531620688329085,-5.380466278286214,2.9591542216644373,-8.899018904987415,8.560628915973718,8.930829943351393,0.03112447108796923,-0.2902234363293159,-6.773840834974717,5.5228353530972445,9.093434283207456,0.14538658308458796,8.186193016557286,8.946794467209472,-6.8719305947691485,-8.91371402769656,-6.0470936030277995,-7.002551089042506,3.5585873295130463,8.550462363666188,-6.304974636722785,1.9911658056795702,7.0186492979809225,9.224231841662087,-4.272637758976752,-2.4027591476277435,-3.3355968353634324,7.186222703782187,-9.049282976283472,7.607702570371601,4.412198579496505,-9.890598801099127,-9.870071873621008,-7.034575522519026,5.368781567999915,-3.4210676109679867,6.209059476402939,-6.015801641635131,2.3788108949568203,7.63294106845376,7.1291298827646115,6.529569317396577,-8.34666123618678,6.057406121249795,5.490464461353397,-3.106515586508228,-1.094850008080085,-3.6498045273495117,-3.8150500790373973,-8.644408389190286,9.685631774895906,6.91650443274227,-6.283434654015482,-1.7677234095525212,8.571118433997185,5.512109511291385,-3.5544030765119974,1.7330722049995937,9.269919144991853,3.1245605393529665,-4.3997663038766515,7.639421377990985,-0.05566707359440004,2.0304191383994925,-8.970517000992025,-5.657938611918362,-0.143555134085537,6.435295074350046,2.981296669558339,8.573002413747568,-0.2260090454175972,-1.381873611996832,-6.854511359233069,-3.4509051314398635,5.330194588716227,-9.782051034453236,0.08480103540107509,7.34716492175072,5.585260218775924,-7.505568050576934,5.2983830782067,-8.329726193420946,-0.17578019777277998,2.05317057277926,1.8823633280021634,8.96818985909237,5.846674379142249,1.4878939219640264,-3.904878259087093,-5.619623111522698,6.8655513240299815,-8.939762594486076,7.931368908932045,-3.043539969242485,-9.294391084431394,6.089769479651145,3.8640817959073024,2.203282350047962,4.198405291599938,-4.093509834639289,6.497684443145683,8.298823575428335,-4.566942396945144,-6.731908439291653,-9.132713531054337,6.780588894897991,3.3725037472152617,-7.909376357602403,-8.10340520440501,-7.362952755065824,-9.676315741373083,2.7851641278848582,1.2641669315493678,7.293206796024661,3.576073256080103,-0.9179588991945662,-7.926544073051404,-1.478491408972157,4.314836936112122,-9.664557008958994,-8.797942945416844,-3.825010369541906,-1.1282540023076753,-6.995874570411484,0.5495689294148767,8.075527542561995,-4.6557604980343195,9.160221767490503,0.3687945784716528,-2.800451266505883,-2.7714937933416173,-8.23656071435062,1.445846167903883,2.4466521984424165,-4.678724946988103,5.243897859550811,-0.7518195769774234,0.9426782676373509,7.89040701112723,0.4942163677639124,-2.851156710666272,-5.276872880588254,-3.569770296172324,-2.242730005526891,-6.231878730697211,-1.4718745495538708,2.06832304146445,2.4449376517093775,-6.125911906434122,1.451874353157379,-4.8548283342350596,-3.6732832690276394,0.340819296482163,-3.334029910991558,-5.586557907882582,-5.17452012679597,9.495634641612519,8.291059481208821,6.557465888860924,-3.5193731762020883,2.653828612148544,-8.241752546714167,-1.519820713154405,-0.67861578891045,2.2001730557020065,0.029998546847610608,9.717421598159659,-7.702387487012202,-9.38538866805597,4.465843126497217,-1.5470831330183001,-1.4043784683619456,4.117372660791657,8.743813684430748,4.458641671141541,-6.777269275452758,7.728677706347308,8.471434638255278,9.271115954419653,7.582939124383543,-3.4117820999732364,8.628603509616351,6.45291356378999,5.92012287993337,-2.4396480978162494,7.185627105001986,-1.991777086350619,7.6267105792313945,-7.360387793465434,-4.6859492055793925,-7.617459184985643,-4.478990989458324,2.426218183115781,1.9093740202792902,-6.0139048235817985,-3.0391332549842365,9.418263375163896,6.064165513642033,4.006075042161492,-7.128304532363468,8.636325588996051,0.9963413993913761,7.523298486277614,8.509947620176435,0.7506801228190327,-0.6138202139818192,0.11441291130055702,8.780843691169096,2.0035848889392947,-5.029287183180631,-5.917974566723016,-4.647469829902562,8.65168573944788,-0.8639715552039358,-8.759574749167962,7.656843158063201,9.96414549622902,5.480569390311491,6.222927402843027,-8.13498530564073,-8.673747595806462,2.6958816509328187,-8.942894437989828,5.160594946718179,-9.705480035630462,7.599885327809441,5.204717956899964,8.809574743835508,3.606665323845049,2.769664942128018,-9.171099761009051,7.660473721041034,2.2055338534562905,2.3066939201389545,7.592656267271599,0.50599923638151,-4.050170990551857,8.334226910896353,0.19996226382122623,-8.136612681007747,8.1980624986259,4.858637585289425,4.7504384384178735,-7.8621410127409295,-3.737954418459021,-2.146960894661031,-7.744033842162426,3.550680964922507,-7.605853313054578
7.354974567511711,-2.663069489665839,1.2358610494228093,-8.046005013140396,-9.72190525175854,-2.010377604569812,-2.5159973421146082,4.193579471831651,1.1452688220463676,-5.658174957074588,-0.5456641504082527,8.15126950036297,-9.126794882055085,-7.281365455754433,4.133734100360543,-8.01156266044933,8.648979445767914,2.2939907472266134,-9.536711554069178,-4.235654342256723,-9.166635970461797,-9.611466172716568,-2.7126895231795993,-2.921623459279976,3.9560955559727504,-9.561431159143083,6.32753907339807,0.3201797317179169,-2.0021454151890854,2.7653614983495265,-3.59371649657263,2.650402235312678,0.7079676342479271,7.116118097479561,0.4427275484813318,-8.320769720177335,0.8708262129746629,-2.433488610999729,7.950160296078318,-6.437969366780863,2.678498368504665,-7.526213746634578,8.445394874187034,-6.107351083825956,-4.0745780908157245,1.2931739472210468,7.44181067367872,3.2904842212514724,-4.315751511010719,-9.418705425613064,1.8105079665585853,-5.8334221484900075,-5.39439745979783,7.537026298284234,-5.053641311405608,9.739017414387524,-7.997551881016022,0.054276103230885386,-3.5488676314731338,4.093631367171685,-5.074920650575943,-2.789457797671363,0.4801542441802302,6.5244730158636015,-6.741501473527981,1.2839896362911438,-9.652420596069163,8.710100574173465,2.161333100790711,-3.1671180503922276,-4.019108958629582,-2.8832563269511504,1.277479485506049,0.822285073792165,-2.5703190364209614,1.0899570857922605,-8.547906445810316,6.3666954005154075,-1.808039386753438,-2.851766629236524,-0.7126571928023777,-0.8451594957836779,-5.25472537583484,3.0528759225889743,-2.787176612945852,5.614442605456546,-3.8065354696214952,-8.670210800745068,-8.693941587844835,7.22294689858579,8.876014956738615,-4.903489919993268,6.68224231249088,8.800663203278479,0.5326142842219903,-3.7425222020857785,-3.3664663512873902,5.306456285646728,-8.198581777032633,-0.6787879925172868,-2.7515174910341336,-4.677720466251448,-7.962335194025625,-7.110969841807933,-6.0307233399413,1.817115729370049,-3.2746847079460544,4.37324881060342,-1.7625452548072396,2.368162502771656,9.052263363305382,4.34734838088545,4.9203276295138885,0.346360277710396,3.1726634881713522,0.5663998769421044,8.514896826851086,8.36860422972376,-4.785119399207732,-7.8600394469337775,-2.4601837775194757,-4.618697946504249,-7.605631106078299,-6.182654546355242,5.929803182491497,-8.959120704522652,0.3936716262868365,5.841826726021423,-4.5391531031340335,5.169167981415274,2.546843343656895,9.328453554484545,-2.190188293083584,1.3703270307844901,-4.942942897150367,-2.265276601710014,-7.627174328359018,-5.021658787334504,0.8467267713598092,2.024003287156097,5.598914030796437,9.32991211876603,-2.5977657981911233,-3.4480381236125295,8.926571027217502,0.2152879073696743,-1.6199815798867139,-4.358951234584392,2.179197214168167,2.6544090115208494,4.801490153187912,-2.608315559642183,-3.072703402683632,2.057529703292692,4.595833305359603,3.5947224872303316,2.3882433577983906,4.188549043570893,-6.565259276169426,2.614130239275595,-4.419118661330983,6.470089785110581,4.701756843474505,1.9392736415244187,-8.606093441490568,1.060430697170272,5.664801125969976,4.3401936937805194,6.781900657911612,-0.11356270865671014,-0.8213731094473222,-9.774214107795002,8.869845956621337,-9.304960574806163,1.3678140644255947,-9.151331617386633,-5.83072135419838,1.9358373956957884,-1.19841186978003,6.1950186612426315,-3.3533566001628614,5.465744523941473,-4.518620506792454,-4.852053106890517,-0.3183049160996716,-8.189639266138892,0.4858366951015656,-5.8713190360017435,-4.916177871960905,-3.28325552528993,-9.036083495223036,8.917777703923006,2.7353724954669967,-4.12999526844142,-2.159665432737774,8.740173362911753,-6.599591626741774,-2.922994956545773,5.759143213183043,-3.308379012842323,-9.107693917749259,7.846957758149315,1.9845119188602256,2.698567715637355,-8.581039353430747,-6.010686895586359,-7.640446403504522,-2.2422089724175116,-8.017989953578631,-6.961266344499935,-8.587548066628038,7.283615041288135,1.5996668535512595,5.232414716449323,7.905806538349128,0.45640274953953286,-7.251694089955905,1.8801787141022066,4.073691865639258,-3.500338686570811,-9.010922696057289,3.841255869085064,4.64880191635844,8.670158469738228,4.7862537468965485,-0.30633470989070744,-9.659887253866149,-4.53284865124408,-5.9862603513661705,3.069141201431672,-8.072740518225485,-7.039777655429715,-1.3670678121279969,-9.750754754288117,0.6399932396351291,7.1772894953153425,-6.185796709860966,-3.655172878422548,-9.665054611678283,-5.75899662184132,-4.426439879676645,1.0932043841582608,-3.870390750279918,-9.029884415731102,8.937220594113684,1.8820566587752006,-8.61713348774018,3.53434206098566,-6.151993861172333,-0.0656769653572149,-1.637167191526082,-9.640030080781473,3.281471144867716,9.77241156460489,-1.8085974203136805,6.951136014208053,5.77427135983638,7.709732656245226,9.609687421107893,-9.377527951164266,-0.9311995773127415,0.11272623856726538,-4.844891861261994,-4.141628759960347,-4.385518417422945
-5.888382032945174,7.897101783480046,-3.6596542837818564,2.859306874788512,-2.4998273410363803,-9.590041659908016,-4.501848897987875,7.693188340791106,1.7172044230170127,0.18385366436025663,4.718819940628635,3.436455578247621,5.652507036380136,-3.639855584478595,0.6898205995450812,-4.712889365455192,-5.952755378215837,-2.605058897890437,-1.1407531920487393,3.308436151791825,6.928766792043012,-7.648671335562913,4.356216092431925,6.270784024983713,1.9460279073064226,6.001144067695872,4.510295446098414,4.496488880422163,9.999726233867136,-5.389506611620609,-8.525485106598511,-4.183801611492635,-3.7260915513629023,0.285651409258012,-4.1420071993443415,1.2771634991491254,6.925857381763217,4.803081900594721,-6.819673975528611,0.8512162036794848,7.681107704918354,7.847514778687692,-2.402458968252974,-4.328828912378546,-8.600163802506163,-2.280926685725804,-7.581908471055052,-4.0442461927549616,3.352288075904762,0.6420095583265737,8.346299030231354,4.176882239227757,8.078045622631347,0.9775413668633002,9.637714082057823,6.3918816343777145,1.6294976730327573,6.526763886537839,0.3416755392561739,-2.015955847493368,6.650609162359517,2.5340491416680067,3.2255968746366586,-5.058591568583128,-1.4166968378266684,9.78617202740785,5.148517803138842,-1.4258110195174594,7.046849035571656,9.369364207824432,-9.183330855739971,9.305839455752993,3.48519213496845,5.453541339164495,-3.3579095904886502,7.3234152612587025,-4.96222578851712,6.585217352980079,8.49795783281072,-3.213844180034289,-3.6420417530911298,0.8329883164324503,1.7857995817845556,-0.5294427788398925,4.901832296568309,1.6398389678204008,-5.447628524011922,6.044861524830436,-0.8300722297206136,9.753991529531948,-3.3397024763351535,6.653592982785341,1.2857773547930318,4.6812995596812925,0.10703601710758193,9.475977396946497,-4.203896256555868,-8.878398701302178,-9.486160581430426,7.33779273305775,-3.5616484904803203,9.330948813869306,5.9800739785981065,2.8792969208402486,7.773857880926854,-2.6414620880688693,-4.330250815840284,8.734628431875652,0.35008258692908445,-7.391057484817554,2.9210349388591825,0.6631106185558737,-6.683551674505019,0.1557166833460073,4.605761591976847,7.3139201408791825,4.211294371660812,1.8830989392457615,3.56400845354759,-6.008826408417962,7.607874105664694,9.530230803736776,-3.353681351126757,-1.1272038185329798,5.479638654525347,7.785169354912103,6.320159349962983,5.599359819146159,9.583960058045776,8.727115097520192,0.8810766385350126,-5.514273977362323,-1.6133315848081842,-4.682360378805344,-3.721340932876913,5.382960661137364,-7.543410634292112,7.38043507398757,-9.7745182502245,5.225301997599966,-3.6115420693266636,-9.485894253665695,3.2499325292538557,8.12978335366551,7.422658750368981,2.177297111356486,9.255590253716356,9.780193971661612,-1.4772293032794455,4.173274273445367,9.2335161194046,8.776413405029892,5.748601904094823,5.726082878030244,3.634622380056733,-9.921975482374812,1.9232667696210655,4.091376985537747,3.734530351961684,3.10808155443231,7.195565307641596,8.609003507487088,-3.565413326983945,-9.437905110854812,-7.67363576479787,-7.56296814305091,6.21211553257878,1.5101186190874452,-8.324102794150594,0.8530199928508341,7.054784314343973,-1.7108587448103552,-0.4015347776785845,5.942035718426611,-9.06201357244601,0.7445832271705104,-3.2078075547989693,-8.476111031097556,-3.840961304665642,0.15211190374926353,-1.087090233193436,-7.090385148660873,3.850842410245672,3.320680098568916,-2.3511143574353426,7.126223160083466,7.923209751484222,5.37914067365944,-6.812392938222578,-6.840761227042855,-5.923127978502885,-4.837693077122399,2.021012743205832,-3.6368720255395077,-7.958484431793509,9.240637457350767,8.347841055543402,9.073363708267447,-6.976839655598733,6.881404930132059,3.0650332343106292,0.840701600757437,1.0348701839441272,9.005449576682501,2.11416258306234,7.844101537188976,-2.011832901153611,-9.658146947419986,-6.695485846928734,3.4549830191777424,-7.454998032160719,3.0287966918722766,-5.891729031086673,5.020117100571097,8.927960106726864,-3.028591446273423,-3.3113383359153405,-7.570403985726091,-1.8784345518248742,8.949506359706866,-5.031248751771074,9.77472986387852,1.737342168677019,2.7149311028800405,-3.0293646072803266,1.5339166549845467,4.535873293008676,-0.4863255605960539,-1.2478124825009846,8.422800155827012,4.013777545861031,4.75571070479598,3.312827669305352,8.929517275204297,6.255460356730758,9.292020297485195,-1.24303508626336,-1.8879020576428474,7.925161706700399,0.008013442673123095,3.1450092938474565,-3.9090084453326135,8.616324338097257,-3.1620926846116504,-7.039473833267243,-9.744768019384695,0.8258827145530958,8.51608201164593,8.126842339708055,8.661379667040634,4.830132823592396,7.193353724101989,7.957512054268098,3.2772717190885015,6.841776003029917,-5.73955185661789,0.4506658096132441,1.4657567584587172,0.025004434631124894,1.204946304839007,8.21099654632416,-1.6001738534560754,5.327928274068919,6.824033985434931,1.106621348254544
6.46534139686417,-2.4988828427653402,8.60350850421399,-5.5161415554267705,5.538312842432705,6.290650907453877,4.666797969953019,-3.5520279088587072,-3.717099274083768,5.285995319457343,-0.7475263730082955,8.074423140696645,1.8823642494064745,4.840241959928657,-0.6015040012289674,-7.781825050265283,8.255816610496124,7.737245205779981,8.460891210831383,-2.505530245367421,1.4666899535231972,9.586487478864743,3.3635113343912435,5.044858434150944,-5.248603644541676,4.607803233001187,2.995780848754712,5.026666451194847,6.4619774175911635,8.909708181371526,6.153499670098401,8.30001515091706,6.747556666307294,5.462727831271096,3.1171942705069604,2.896353634454422,9.258393244816432,4.921130261823357,7.839850653398115,3.6656645384601854,1.973250731168939,-6.475758775740591,6.556254992983806,1.0221244032006016,3.8849174740854107,3.648884855576216,9.925021662628117,8.869444207298237,-7.6985286629936605,7.520564689589611,7.511021479641835,7.834833829415631,6.015323597470925,-3.1873514693074765,6.876415316740689,-0.4069111392325677,9.316896672256902,7.952419917803471,-1.7708890278212603,-3.01500382408474,8.31585012138347,5.0776956863335565,-4.872752158227784,8.244311797250033,-2.793416665909486,9.24366095314657,0.9066342785904209,3.077150339035372,7.440162791343441,3.9476808690385203,3.724341071240856,9.65287368392297,7.12852078644295,-5.2237868699817,4.254432300875893,4.459634327885206,6.801791455630897,4.772313926874527,2.042979265694858,6.611856543780115,4.1532886864433,-0.7112141926488302,-1.5284501914467503,0.11125613563577119,-1.1787803902275933,4.037973829826248,6.2981753981360535,4.010146825790394,5.227668639600483,5.190042863514745,5.309895312276157,-2.1398102863258037,0.9508082284832273,2.7993446640705097,8.218676352443484,1.7405491062079779,3.569563252539291,8.498357049540983,2.80325946052549,5.57199731782802,-2.678747373471941,5.681616910496693,7.001985718837544,6.94365776193162,5.594476927482501,-0.4034425932487402,5.684817547466467,0.5047955122623058,4.484823577267356,-5.495273488346326,-3.6554303166701065,9.330311863650445,9.0058885866351,3.4930055550136423,9.75093415768211,-1.9795104158635315,2.0167697115247805,2.238966714159548,1.8112645419678408,0.9776356611906595,8.898523228564285,-4.385413253148775,9.10171288690136,-0.979697475049395,9.209995803306398,3.4209130961497025,6.250128280698595,5.424933953547522,5.829947340593979,8.216418391747606,0.8816522983627744,2.6356648654225063,3.162341529039514,5.267259919623435,-3.5414862753867045,8.47478649524387,5.708220339602404,2.189367422635948,-1.738839951175862,6.461920149107218,7.522068404046532,7.660693067840016,-5.712216074114536,9.801284016896092,4.894289092520905,-6.632525672848021,9.837225719718331,-8.07349431019366,8.801679100416447,-7.0542275857909855,3.535346335816909,9.857583356070652,0.6646492312056913,4.823872691719404,3.8343255278690296,2.6303673979178903,-0.6065159576139445,-4.275375420456278,1.8433012240391045,9.866168885224775,2.528344392170917,-4.519332897183525,-1.2914377720041124,4.174266694973833,4.474632805902828,-8.063584624287332,-1.6414685213934344,-9.094806204243296,8.620679072988722,3.975321033949795,6.3230625746756655,9.781745855217112,-0.2601256148487261,4.78963884172077,7.3935375527001,9.365404844725992,5.546296371813254,-5.311624941949287,8.359829422801157,-4.670566480316754,6.020687567915548,7.151511197924541,1.9560583945571608,-3.209003597681967,6.6158271162029285,4.22323140422854,2.997368348420114,8.095254637789049,-8.873747666995722,8.006884464423024,8.85230560924688,4.50476465171635,8.834767279921575,-8.613414379647203,0.5696026124982424,-2.257478426640715,3.581335897470927,7.768745220708089,-0.015659255534844707,3.79486619653941,-3.7250378165023257,3.3815344402527794,6.065377208011121,1.1602763890465044,0.9923186612970056,-1.0807393232463745,1.9331578571035428,8.951143561795062,-3.95071556037042,9.575806996732013,5.595275481025122,-3.1554731196869477,-4.276684620627553,2.7912319670396006,0.5239870608098078,2.8044360687264396,9.297081505593894,6.109569609370897,-0.7894163145599564,-6.9303006685493225,-8.278914104989001,6.437240474146631,6.4224156180966965,6.283292114230908,3.1061071102128297,3.7570922568887033,9.74676571113962,4.811834588499535,2.2958890428028282,9.719259733779175,-9.00286043552158,8.312791669121427,9.821949367216158,6.25721435600514,-4.693629064239517,3.4321641393494415,0.6784694361446904,-1.482029901993931,5.64949950110211,8.459507435427184,-1.1514842125251503,-5.8614291041100115,-3.9521401342817297,9.722167281609964,9.144520038859689,8.323548874029393,8.518540513680627,2.9323749684645324,5.38239333071651,4.042454313658505,5.147355083804303,7.6550473460078,8.400930521710356,7.197114117270871,8.437837332225051,-5.41614842816433,6.1781816484583025,0.9328086942951535,8.527650895112515,9.158274177464405,-8.200071328483869,3.6530483635455937,8.863505912927666,-4.0417616577759725,-0.22336158749770707
-9.459889885240408,-5.942524577822865,-0.018519242217307053,-5.408848570963293,-2.2410538475588506,-5.77416095846806,3.031255917360998,-7.5734458155767745,0.7114572735290066,-5.561414946793574,8.807638967818427,1.4873845368458665,9.217369916536583,5.252950513834611,-0.09181079685780036,9.50436235375504,-5.896849901309169,2.0044048561597396,4.7747768138551026,-5.732627185749839,-9.485690972447804,5.982997590346438,-4.741536611766603,-9.936378092306459,-7.924666702219893,-5.232663337803891,-5.426096808373826,-2.0069718349513885,-0.7017318713104257,2.8560555793758637,-2.497973388744374,-2.1121586718539835,6.707751048290571,3.393804185358431,-7.414461591334648,-5.68851587868542,-8.19099206334397,1.1969418743868072,-9.479425624448337,7.570217950872637,8.947882558360206,-2.456174794742463,1.2484393140611223,-1.2932157080019655,-7.610546523865425,-6.003606235537415,-5.839932950572038,-7.963851869219438,3.4647751141449783,2.8543342593145953,-0.23325036649260067,-8.385540811370022,-4.1667945923405325,-8.308386378112475,2.6492559350202947,1.7820189789027503,-5.721334548561515,2.3451062800814126,2.5054326828613918,-9.655449671780787,-6.952841535712969,-4.259915441858812,-7.608521845537962,7.103326162767668,1.0697554737670805,-1.5429348733753514,-7.84947980415385,3.5094408667369046,-7.817637021954264,-3.8879632115748244,-1.3660459226900588,-7.374344757752967,5.346130351626144,3.7131776651295074,7.6809049796335405,1.4561061961814188,0.0924240387831663,-3.0025215433669152,-5.655110884294233,1.12362390245677,-1.3937581819792264,-0.40157149961255323,-8.061140999271396,-2.8257758194014913,-1.4902592637158096,-4.437849405350627,9.0111219554315,9.108292760929357,-8.620502980685012,5.782014460913831,-8.172791996257288,-6.208561713749573,-7.8994136016506085,8.122859434453963,4.274634499812002,-0.937275278305925,4.849783627368349,9.65371963640646,-4.045846809459689,-3.1316974638904838,1.243693800709432,5.274916750634849,-4.991893551454021,-1.9994347954384408,-3.234207448707039,-4.233503129538935,4.390233593447453,6.95090751448854,-6.468513544572831,-9.826725192197452,4.996189509045943,-2.471750791130672,8.730696644383494,-4.492344920369414,-6.051452376072849,-5.805344558626805,-0.01170655139668475,-6.96813010696521,-4.740246497375651,9.690820281698965,-1.9405490208450393,-7.992921310927397,0.4481109634786504,1.5904079919580032,-9.33216629410574,-3.05645486575113,0.7811260595116893,-1.2695510423640075,1.4965159117321583,3.7302939658276464,-7.455809534789681,-9.261928497213367,-5.430136762891468,2.136567755472017,-5.894492842280896,6.354701003186955,-1.2398152342814508,2.344108894898641,9.93555706876347,-4.3745597652714014,-5.970931166948851,8.948497971522215,5.865482559554647,-8.147542762248857,2.659906739823355,-2.3223710781775164,3.2902296545925163,-9.488142487647249,6.522229429483319,-8.714624913463558,7.33570567831849,-1.1170678670252512,-3.63899871489986,-4.192921005807218,-8.0234008893402,7.350571852684439,4.7915048344067905,-9.610267387609076,7.157701631118437,3.367212685311846,-3.3905056184065083,-0.49556056450494435,-7.2029089541246325,1.2685354601646097,-5.394061121303661,-2.83719375414317,-3.402152248891306,-2.481213830722382,-0.44061977130407914,-7.079490730769111,-5.595406377870514,-7.4816996331602486,-9.917457964055743,-2.074194266544019,7.444804709608675,1.9017958217589461,-1.763901269397806,-3.5323893149264016,0.25998869579286144,7.818221038059061,-8.999845218684513,-9.924858798103456,3.4311272667699004,7.5485508906955285,-5.075308297018733,-0.6922762480738811,-1.9398922465122541,-6.0671012329190335,6.938938989097656,-2.6780458444051725,3.8551782823801304,-9.120396442551742,-0.6391749214283099,-7.987358013597641,-9.769019143679744,7.876286769932575,-1.0673631406137254,-0.4192155334733084,-6.212123293761642,-1.3806517751993925,9.369674290764326,0.9360482473479461,5.383190844420569,-0.07763974680615099,1.258227534348081,-8.57579101137646,-6.094293671869287,1.7331616098722424,-3.9925057533657196,-0.16982045031072127,-9.667380392081265,2.0415592001221867,-4.19038720513902,5.99750417199242,-5.301142982655516,1.0553686232601427,-8.447825228212295,-3.8202559625165207,-5.215755631803656,0.9361727759894203,5.379586459646463,-7.608671791468392,-9.381954567382717,8.128410822741195,-9.285701135707274,-9.210385239885627,-6.773855475954285,-9.693528386090172,-9.270039348777061,0.8093192260857819,-4.87359353438565,-4.42013852846727,0.912317733679838,-0.584945324151682,0.2502867468724399,-8.430241201628373,-2.3206831381082296,-1.299498559257066,-5.750255652764322,-5.804902108196331,5.274093334028615,-0.5356645949684378,-6.612039704295988,-5.073469014814318,-1.3922408068842713,-9.876368171007396,-8.625595482889281,0.08773564077860918,5.132107264894497,-1.6155112388316537,6.13164736633453,-2.1894957553750753,1.6219204988365932,-0.02141513491151703,-0.7852352042192439,-8.009270630906782,-6.714755956001073,-7.490482558899645,9.110865065198912,-2.272604832561541,-6.159956379756809,-9.64941838730368,-4.69127303141504,1.6365984004410292,-2.3150250056972563
9.75867417941926,5.024986727791963,-2.4784326403771995,7.035854367897346,9.755692729755815,5.91102053452988,2.3283534663587164,8.352391710863053,8.42999302563721,9.165881591898728,-1.0119302617025916,-0.7939628777647405,-0.4456477155687506,8.415927728119133,-9.53706610639326,9.588370550031334,-1.2524302509487466,1.4397986784773875,2.9339024222950187,0.7046770638106188,-4.5448929940899925,-6.746848810473141,0.4875569208894803,4.302167577960746,6.395634536624086,-7.364035020532588,-1.2239408455712546,8.492167191628651,-7.85523245844288,9.447964452283747,-4.999939236940246,3.276467774422684,9.921492464161469,-8.050465163457899,-2.783723536821914,-2.267340101813139,3.0154242866739227,5.139190688175899,6.321724578488958,8.624865119227014,3.1774626168636506,-9.348703836710659,0.18832816931012747,-7.345797779622197,-5.756647538307755,2.110760194937141,-2.566609589790341,-3.5838934206051234,3.5216797035486485,-8.272116117820456,8.280829905991888,-9.466088097601386,-0.048899768433281254,1.9429714463154582,0.945200931036434,-5.479618861326222,-5.745005199144321,0.8669164286498305,4.352115455198261,7.961587992877681,9.597841824346691,-7.643635223730088,8.914250461043723,1.8498654598365443,9.099291238550078,-0.7092124826138906,4.873236349091435,-6.28760587338009,8.276501733141927,9.275514140834739,1.5986176189300711,5.192824351683387,3.9723496477858915,0.2937614804637738,2.0912028052162177,5.573188704847889,-3.9683114104688815,7.637008965949692,4.037874944065324,-0.2209371418200894,-5.812839391895571,3.6992461451348015,-0.4256946136204216,-1.5274438608245116,-0.4475550594965174,-0.5709465319815337,4.594098695266746,6.590746234378561,-1.5527987503842648,-9.485686713078898,-0.3292012840797005,-3.106406603082123,-8.346130948189428,-0.32290997007033084,-3.0616921066189815,1.1018178200845714,5.620922483900772,-1.4529740840839191,-4.625252171598003,6.156305907364504,1.8067992352121283,-3.248592492482149,6.351316821973398,-8.548307002570416,5.918323289766121,-3.2250019503075036,5.471057712945731,5.053506176810158,4.1918697792524515,2.868410565701221,9.860978110783659,-2.3311150173843598,-4.26962985882427,-1.5178726739528128,-0.22127545426682305,8.999196793733043,9.392162855500608,7.000610312876274,5.868035471524695,3.1802383285323885,3.5539117670884517,7.324292496823442,7.687521823072572,9.281274796901087,1.4411358906823817,-2.674726696236114,-4.081766816654556,-7.443987984808001,4.5384760803952755,7.481132281542835,8.45240830147197,5.5964084923085045,8.281942184667178,-8.187188693703629,9.076125582738271,-8.20289907766909,8.711793631264182,-6.346393339550881,-8.735961260721545,2.4704421355335064,-1.7164200463005672,4.980271649028964,7.7221739844484425,9.5309445454997,-6.742360295574368,6.064988797899128,-4.221840556453419,-7.4092698599434925,-2.2430327944299076,-0.4387805969560863,-7.7891554254181194,4.818063753596138,4.760132409050463,6.362424059830073,-3.903005318864192,9.469174692219582,-9.56270337572597,7.534402862207584,2.155487230613072,6.15363658433234,6.369131370815506,3.4434563929626663,-7.760613425365002,-8.885989683873182,-4.062674707107719,4.974109280903971,-2.4992499972943896,2.9010359963969856,-7.531368500420168,3.351281085026028,-4.331913038180602,9.869143448001608,-1.4991063953206174,-0.023659408472878063,-3.8413692728248763,4.779309475072548,8.654208692953986,5.704631760594557,9.802150829993701,4.011976214676324,-4.164836826590795,2.7373571820360345,-0.5626127729607528,8.41907619384011,0.6696042180572364,6.703472907332287,-0.768440583363077,4.942518916236578,8.423259287161992,-0.3689404259864574,-9.65100064107234,-7.050728491170738,0.40744965997481525,9.571300674585494,1.295861504721056,5.823902153978868,-6.342846578034089,-5.329636263094791,6.791012522860278,9.18361770033598,8.06752029182518,8.455257957820173,-1.3551114430332418,-0.880704474321142,-1.2134150310370755,9.381244022856173,3.6315795625894123,5.2230028988115595,7.613842077817605,9.037075300846766,-0.8988452816758417,2.7684184991837375,0.7655719073442384,5.357584223682424,8.182688335204269,3.079856325972493,2.4737310612379906,-5.422164207559786,0.16741184904175366,-6.383980778505158,2.305781939968277,2.140880843060568,2.477583916743739,5.622767718673469,-5.923930780251075,-9.439115228337052,-2.16695568785786,-1.3624194780534775,-9.247934223283965,0.8105722827619692,1.4327922328476046,5.128661265945858,-5.154511488584839,3.9073829336632544,3.0618734928034197,-9.084942543663146,-9.654847665344118,0.5673941033719871,2.8645461496125715,3.1212055777163226,-7.864613284804319,0.014273727924651355,-4.91806251284459,6.083902495569008,4.020346723833038,7.929618766187771,5.746773738340057,-0.391028972930182,-3.164574713287413,0.658336441764781,3.7412539505839955,2.4504983587483293,7.278563133320809,-4.7544811212389355,-6.695961443440917,4.568176775968791,-9.689103054713277,-0.4131143109901525,-1.30950558919604,-4.922433404729155,-3.5565457409234833,3.7962112550416025,-6.3333496685909285,8.468644472971615,4.444112955624126
9.589330329123968,8.07101196010884,0.8735520234704781,9.719691230280354,-0.33224576219207114,-9.413343437377488,-5.119985697341852,7.882966519664306,3.47753685906891,0.2832462427273619,2.6648772564848002,6.722869364841355,-1.6856965078756532,2.6468340585850783,8.894969352663065,2.3959203936950644,9.487931471262307,6.267178086438818,3.2810158861770016,-1.789992706682512,6.532339377360147,2.2124841824287587,9.423146416247263,5.370234292751853,-7.563695273082392,-3.0064922380081094,0.37786268026137737,8.348589095088382,2.3757660066779485,3.229557398241891,-3.6587577872968353,5.139128462767337,-7.575492173988086,0.6548285332884953,-9.461142001797498,-0.5513974686666874,-4.503985596760767,2.9543846062805796,3.8669347297846746,0.23462581020088935,-2.4512674052371035,-1.3293574922970333,1.7875923755254544,8.814959342360755,3.9850097227221397,9.515338661338996,8.648218670048617,9.085162733972757,5.383930077701403,-3.7638316276913937,0.2158436465892266,0.3079059943403486,-2.02186602473083,-3.1852208180673305,-0.6483279852104706,7.4653200860706,-0.5237896057652236,-0.051905332887606015,0.9656185764898679,-4.257704241068437,7.022667303413549,-1.6604601900105724,9.77257924595402,-5.251730025821736,1.4226382775330557,2.8003296699957394,4.56949174900379,-2.9907606944052754,-2.4983970419756085,-0.6195843974942457,9.089696802440145,6.382559734136911,-1.6287391512103349,-9.514308272202117,-0.6262481026030313,7.726180682814672,-5.440372102125178,-7.165844520399268,3.163836510888304,1.4996340988602617,-3.1657785853140634,6.821773131848739,6.653920484780027,3.70782446345233,-6.063540130184713,2.9679129590974562,5.343526786237489,1.1928610637943855,-0.29208900845515107,-3.028327828598632,1.601923622548735,-9.037795350958277,6.661371362378396,3.7606265912145664,-3.4917595119285583,9.762807718462485,2.9420834662263573,-1.2699125377961566,8.271370432339493,1.0095092700606112,5.927137103405837,-5.563946471058476,-7.439455636488363,7.709576109438644,-1.3621138364350682,-4.736555461299458,6.358024418628959,-3.5826366331335393,5.767172746741604,0.8726178451402395,3.027127753592186,-0.5162844026300557,-0.04266685345264687,3.462792069677437,-4.082683381928069,5.032755786114567,-1.4534399418144455,2.0394363639928086,-6.649893712937224,-3.061208797263161,-5.519153988510219,1.1980925084760914,7.767400926298302,-0.419967252696956,-5.456282933246849,-8.384747164085082,6.195965854782294,8.897698054096182,-6.441061903204849,7.56580449071779,0.709053531096624,7.303695639579159,5.085820419163854,4.6029722544677885,4.468111805381984,7.352939541014044,-5.89755069000142,-0.17792559901339394,-7.624235811948639,0.5405304765460714,6.025789632103346,-0.4456914449400722,-3.0728580227462547,-3.060015100786715,-7.742970706112009,-7.23224629662084,-4.447304187216368,-1.720151752997181,3.0847250720914428,4.075671134278428,-9.416172597490835,4.998670950662429,1.8433164473400865,3.63595484406302,7.397941575480801,3.289203228513387,1.5324810159215905,1.8701102137494108,5.003441860495352,5.277253523874215,-1.0897233838960774,6.013157726606499,7.514999914198571,-2.2864125089918597,6.846526669983848,4.26752781741593,-0.7222985185651138,9.64550706431945,5.854381655888831,4.779419298685978,1.0271151266703713,3.1520338561397807,-0.34236819689374753,1.6730337927333991,-3.0418055436452778,-0.33055716689963655,-4.864506070148731,6.363289555847187,3.1124309115750965,3.470924782470842,7.4573761196312285,7.527687650030346,7.062112960282068,-4.048416000583275,6.313495433831136,-2.5838212973511725,4.7588909779967015,4.970321408687473,3.709882859056413,4.227535205828336,2.6736960121424267,6.231597137939152,-1.8662399004174643,-1.5184524919666957,-7.58436502159061,9.243559879025987,5.1587171031347046,4.507231630335173,3.909640642505769,7.136868947484367,8.790577994207045,7.264725490823121,7.608739464358375,3.0373993675546003,5.58739429313669,1.8337242523995716,8.689691739143651,-5.185791044781585,8.597484315357898,5.0940151071408835,7.773916624145204,9.177363608537432,4.587051465079313,7.003748677684168,5.095813017316491,-2.3383590150029696,6.794470812875256,4.670569296819801,-0.49647464646617134,-6.459956419407869,-6.81942972079342,7.725155168895666,5.890383847969361,5.264636396239439,-7.230814096785743,0.7452570398191356,-8.23278162930212,-3.2932028415635974,7.741153457094001,3.579612100895393,-5.304610894856976,9.690962237590703,8.001939575771308,2.1157113369661493,9.356197082731738,5.130622969922385,5.659553614159778,9.671037317932699,5.520945638427481,8.539169513944913,-3.284093031088125,7.420592480692622,-2.148711981744934,2.7905605393158144,-5.872090903868534,-2.806076492356846,7.019957362944426,-2.6354146769727467,9.501763045746257,-5.780226467279559,9.524742304071504,7.434411290188798,3.96336286284541,6.7709271148880745,7.732623615591621,-4.954319547296855,0.650295384125765,9.414915629111722,8.944074076506524,6.200731244437013,6.963229085306264,-6.494863413716571,-1.8533841740657502,9.49867037474157,-3.0673611346882645
3.4536706178677257,6.860519287112394,-6.725997222715947,-9.435987718199724,-5.562917245079167,6.053270575248419,1.008461767216151,-1.3695372489303148,0.7262833091662395,-9.417081422751002,6.218692336320451,5.126427637655412,0.21459329691417972,5.521220897155468,-2.309438861660415,-8.027862886082833,6.282621084940772,3.3967915925377437,-8.447161710775749,3.502467429324437,-4.933279177414965,-4.527289769583737,8.823255220103308,7.275481152704231,6.741934097987617,-6.986867185737467,-6.493496086017213,6.382014108205304,1.0075570583931128,7.366269185819943,3.9020909286284784,-9.684887253662943,4.612245967121034,-9.428175796835838,5.555308415349893,-9.378176081080117,4.809804005512709,0.16979782811341115,7.820973992637727,-8.524863735529465,0.05729635790126153,4.398072472969596,-9.70996569559945,2.036927761266172,-1.8034418001790482,-7.240608816819412,-7.948353728120761,-8.080252063303192,7.3544577579333685,-1.237732150392147,1.9811178333672892,0.4630989124620575,-7.166739207821878,-9.309979092292117,-1.1259996212090222,1.8944591899875576,-5.563165928513002,-1.4536681497109392,5.523574120276851,6.960944345253733,-9.51798000579532,-9.489295674900973,-0.26002080110985926,5.297054486303287,-4.947289613137238,8.657673584962081,-0.7594455788912773,7.802727906544611,3.02068583617966,-7.358146682673773,2.850858139054456,9.43202070184428,-3.568803800348795,-0.7804394583252097,-3.9370192840396716,4.594442138630872,3.7826999284885297,8.55845843388861,6.428001550111286,-8.558189200057114,-1.3776435256207775,3.0332630520480066,6.005366735334613,6.800799284544425,-0.9599030358205294,-5.584537907618921,0.25951963902423536,0.7195079453735571,1.8730860604079962,-0.7873189764590485,-5.573954598414531,-4.742735192952992,-2.821308257066958,-1.4262044778906862,5.343124939421973,-1.8502676650453496,-5.451721954748202,-8.263030658629091,-3.4122279236925444,-8.386941880599357,-1.8048366177683461,-7.214653293077685,-5.395868612994079,1.156720747204241,-9.331674232701149,-6.459343402190328,-7.9952581107837455,-9.054674488910646,-4.066970134403631,6.261038000144925,3.7248418892851265,-8.09477739525294,-3.225497691124881,-2.6915460577288526,2.82537377316868,7.188691219716418,-6.5316489436218,6.733846596155254,5.270275929841964,2.889975951282677,-3.653242796406798,-1.5316897069763176,-4.946207537020438,-7.738355696546637,-5.631499597378012,-1.6795281062506067,-7.859401222421403,-1.6498712582714088,-4.330969169995419,3.601804031688057,-0.927289731403464,4.7419306537023225,6.162271790310253,-1.103624449463258,-2.695717558147407,6.511388388125392,-8.610480712253594,3.257428011462432,-8.09813426553648,-9.523741316026905,-8.404179496409046,-2.9218895494253854,-0.06972923031843958,-7.246502102905821,6.3350288447781065,7.128583759682739,2.6590934316366392,-9.662106451617095,-4.48037342802848,-7.734815405221535,-8.4396430168305,2.911279014279564,5.791686947835711,-1.7520548964358102,-2.055516337181276,2.6675772671381672,5.795698569164113,8.944620814013286,2.2481796354974954,-4.05616313756989,-1.6858917599863092,-2.526955028365564,-9.019386671109167,2.620741903598354,7.3768524652268646,2.2048281762534097,5.458974633134152,-3.9452940750888397,-6.486494428687653,-5.060850192590175,3.9416293893335457,8.518932772027378,-7.81323955563085,1.870508789677507,-8.578021238326713,-4.486755609459067,1.0377775812658365,-6.231310377102572,7.354380644186889,6.51901828973097,7.264440961624661,-6.186046217723526,-5.772830733448248,-8.803746934577783,-8.799279232090672,-9.364720300502348,-2.5155002813291345,5.803380084134894,2.1899350255518315,-8.575108097439728,-4.152081414065147,-5.79415056676614,-7.2586672805978525,-7.017874398148731,-0.8123681751777174,-4.383914455967274,-0.8360245177809575,1.0695829398695782,-7.223726714520908,2.5890661070688266,-7.830046922184062,-3.921992486533654,5.18787268911489,7.374313893304467,-9.712591364600257,-9.0579040293878,-9.055537757107764,-8.94558095292118,9.933606393451257,-3.3153414163395727,-9.38464916178328,-9.084436952113672,5.322298640966832,6.471137313936068,-0.7093975987225605,8.773531636026302,-3.088944381264724,-1.4517569570734121,0.5131454421585326,6.55007099867079,-7.383367377171443,-5.814987014755312,9.006787712912569,6.0953954248813815,4.203806926820915,-6.3926682520880265,7.4432391834642395,-3.991760614826438,-7.868985161072025,1.167810736282005,5.3722696432776065,-6.887141699659774,7.4399825136123745,-3.6732160115688117,-5.045751926404616,4.229410966671059,9.488676503130431,-9.891312461823942,-1.4382396706698932,8.064631140226323,-8.194307384588164,2.7704502199999395,1.3531656717671128,-2.044548422040509,4.961455560685746,3.952086215979943,8.28577468309981,-0.9944371404285626,-1.2581010360774454,-8.553379696720114,-8.27420443586304,-0.6929272404668883,-3.077933646597617,7.636514238295529,3.15852523747677,9.316412078649154,9.299151785915546,-4.510081037546897,2.871741107769228,1.513633574468364,-6.065106685722159,3.1927717984123443,2.3183982232534266,7.195123268579433,-6.595288952990307
